437 200
plane -0.32078 0.152857 -0.043603 -0.518722 -0.401869 0.093124 -0.09794 -0.477556 -0.100905 -0.227146 0.542388 0.566225 0.159388 0.080649 0.047813 0.659383 0.119175 -0.076722 -0.057301 0.383533 0.103386 -0.237028 0.047545 0.356685 -0.635865 0.452189 0.118713 -0.256813 -0.097627 -0.09549 0.200615 0.31316 0.040352 -0.30211 0.55328 0.214709 -0.133089 -0.188822 -0.205611 0.128575 -0.429411 -0.094465 -0.469246 0.184395 0.520365 -0.262949 -0.305139 -0.055816 -0.320938 0.487677 -0.021837 -0.147912 0.478778 -0.016877 -0.257184 0.078632 0.253175 -0.185199 -0.01102 -0.403744 0.290866 0.33941 -0.265423 -0.024153 0.059281 -0.324773 0.017002 0.033538 -0.417623 -0.082451 -0.430959 0.041168 -0.256918 0.442284 -0.435016 -0.160823 -0.291751 -0.448789 -0.347854 0.688811 0.071154 -0.175036 -0.288583 -0.107655 0.516122 0.028311 -0.287481 -0.177743 0.151967 0.014215 -0.040667 0.033017 0.001366 -0.160609 0.456217 -0.213503 0.003983 -0.12929 -0.235413 0.198302 -0.30893 0.587806 0.206663 0.336034 0.103175 0.103727 -0.265289 0.188199 0.393388 0.220995 -0.098392 0.333143 0.054891 -0.202377 -0.491811 -0.316942 0.22756 -0.187268 0.138714 -0.146809 -0.383968 0.00884 0.247872 -0.201845 -0.012474 0.180735 0.417313 -0.32777 -0.256314 -0.174877 -0.129687 -0.115 0.361752 -0.203355 0.176061 -0.119647 0.018167 -0.214853 0.516372 -0.29213 0.267075 0.28998 -0.069926 0.158151 -0.070295 -0.032118 0.084545 0.251744 0.216348 0.639533 -0.11892 0.013742 0.109636 0.102082 -0.049491 -0.192285 -0.171249 -0.042477 -0.054413 -0.301579 0.27055 0.505107 -0.288379 0.467551 0.239648 -0.17885 0.175808 0.103229 0.034018 -0.032291 -0.55784 -0.321528 -0.296014 -0.083341 0.334743 -0.232115 -0.36307 0.032402 -0.256869 -0.794867 -0.20751 -0.056706 0.098411 -0.586377 -0.087987 0.127812 -0.181487 0.04766 -0.004741 0.238346 -0.402003 -0.143734 -0.102683 -0.309954 -0.593126 -0.078586 0.532295 0.162393 -0.081257 0.002127
stupid -0.873663 0.021492 0.006149 -0.016143 -0.468696 0.044407 -0.313967 0.144099 -0.352716 -0.185387 0.141125 0.224861 0.169207 0.042214 -0.111155 -0.225614 0.089399 0.491012 -0.118623 -0.225651 -0.018732 0.104363 -0.176313 -0.157935 -0.14201 0.400394 -0.278093 -0.052079 -0.132534 0.012614 0.340069 0.332138 0.157017 -0.134083 -0.167536 -0.056298 0.092801 0.061844 0.054544 -0.111543 -0.075683 0.393063 -0.136391 0.229016 0.488219 0.609169 -0.490469 -0.025372 -0.026515 -0.004829 -0.242317 0.080818 0.034928 -0.200966 0.232034 -0.16855 0.112066 0.215257 -0.221917 -0.254727 -0.286431 0.119645 -0.118558 -0.221126 -0.105506 -0.284077 0.055717 0.177513 0.105452 -0.148455 0.357722 -0.028275 0.224357 -0.03013 0.202009 0.175646 -0.277023 -0.290404 0.377249 0.628736 0.268448 0.04536 -0.06663 -0.021159 0.131802 0.170191 -0.027729 -0.087971 1.034978 0.323566 -0.349556 0.037294 0.070171 -0.098711 0.566066 0.232327 -0.164288 0.433371 0.316081 0.699732 -0.223538 0.207991 -0.062843 0.311484 -0.403676 0.252752 -0.204819 -0.052003 -0.09827 0.021778 0.277221 0.07051 0.217268 0.152666 -0.69142 0.178539 0.134727 0.473989 0.036329 0.264168 0.558931 0.378292 0.144515 0.053775 -0.038581 -1.5E-5 -0.228611 -0.334905 -0.049251 -0.197211 0.129901 0.132159 0.098277 0.222251 0.519899 0.089875 -0.097998 0.086136 -0.268846 0.042108 0.114355 -0.045537 -0.113065 0.162116 -0.16048 -0.001665 0.194663 -0.066207 -0.315451 0.130251 -0.096041 -0.183283 -0.058154 -0.21638 -0.014889 -0.013186 -0.138378 0.058395 -0.226983 -0.234563 -0.149895 0.61892 -0.118648 -0.001186 -0.033834 -0.397763 0.148251 -0.325928 0.167872 -0.390325 -0.388249 -0.233456 0.124746 0.16037 0.018717 0.162188 -0.006586 -0.062842 -0.19969 0.043844 0.263445 0.273842 0.405855 0.60479 0.337426 0.048964 0.40407 0.155779 0.38562 0.324008 -0.143424 -0.058867 -0.160682 -0.160614 0.18604 -0.42703 0.080215 0.449755 0.032158 -0.077663
egg -0.273274 0.291382 -0.083956 -0.165359 -0.18789 -0.157967 -0.132776 0.114442 -0.576804 -0.177312 0.169632 0.027315 -0.036405 -0.383224 0.585545 0.082726 -0.09285 -0.206016 -0.457748 -0.007752 0.188974 -0.455924 -0.134923 0.338885 0.037086 0.271282 0.208966 0.006718 -0.101938 0.096143 -5.13E-4 -0.105787 0.148645 2.8E-5 0.060285 -0.292538 -0.13789 0.270781 -0.405658 -0.170244 -0.333242 -0.230802 -0.078 0.024233 0.534637 0.512059 0.208731 -0.055758 -0.016441 -0.089758 0.232491 -0.305894 0.025016 0.406253 0.328737 0.293153 0.622127 0.213129 -0.18976 0.225341 0.049887 0.541098 -0.09016 0.033559 0.216807 0.138205 -0.429716 -0.004885 -0.709647 0.304408 0.195881 0.073154 -0.018225 0.397552 -0.147326 -0.124403 0.027931 -0.331069 0.408394 0.643134 0.27779 0.004612 -0.428968 -0.018605 -0.247416 -0.026512 -0.640653 0.002171 0.265125 -0.188534 0.185562 0.538187 0.749383 -0.086332 0.19864 0.004834 0.202601 0.032667 0.241121 0.013697 0.189991 -0.020744 0.365594 -0.542331 -0.124241 -0.352242 -0.866527 0.032283 0.035757 0.036613 0.148003 -0.356202 -0.044905 -0.039496 -0.190591 0.372563 0.029362 -0.27253 -0.277144 0.153576 0.08849 -0.022475 -0.392754 0.171859 0.045882 -0.288068 0.570535 -0.032078 0.593367 0.01063 -0.5488 -0.228719 -0.276419 0.442833 0.266183 -0.414852 -0.001853 -0.396145 -0.115858 0.28193 -0.007527 -0.235639 -0.239019 0.05792 0.364556 0.609043 -0.264035 -0.296286 -0.083771 0.332717 -0.384661 -0.347426 -0.014605 0.758017 -0.149275 -0.279869 -0.427022 0.05261 0.114789 0.049638 -0.319685 -0.027914 -0.218742 0.388098 -0.494225 -0.532644 0.11907 0.033426 0.760151 -0.180899 0.172558 -0.21762 -0.249691 -0.064726 0.21134 -0.053839 -0.303476 0.558097 -0.586252 -0.418618 0.457966 -0.102536 -0.223149 0.666336 0.330463 0.020708 -0.176473 0.439201 0.183837 0.284186 -0.041934 0.150276 0.076768 -0.038575 -0.325692 0.028207 0.119949 0.291152 -0.574704 -0.476676
year -0.343014 -0.186206 0.143929 0.186277 -0.207245 0.379354 -0.05415 -0.150169 0.315725 -0.079616 -0.415134 0.002059 -0.185707 0.012432 -0.097642 0.0804 -0.279434 0.030394 -0.020622 0.344708 -0.160046 0.012773 -0.325679 -0.024205 0.134617 0.452535 0.234951 0.184885 -0.02109 -0.029664 -0.006414 -0.265675 0.116131 -0.102764 0.092361 -0.081309 0.043099 -0.069411 0.161039 0.008444 -0.08614 0.277662 -0.019618 -0.072339 -0.005881 0.325851 -0.055332 -0.126677 -0.206728 -0.074361 0.057563 0.148794 0.037673 0.156012 0.246866 0.125987 0.104577 -0.029069 -0.338848 -0.113933 -0.139457 0.515234 -0.097191 -0.018762 0.326544 0.08105 0.120924 -0.102901 -0.262419 -0.398285 -0.179778 -0.212068 -0.186263 -0.172385 0.075268 -0.149315 -0.250639 -0.093117 0.151786 0.045403 0.362933 0.228014 0.009909 0.154788 -0.036377 0.222535 -0.077681 0.066813 -0.050706 0.038448 0.23155 0.159266 0.195175 -0.291407 0.202181 -0.138395 0.373341 0.007676 0.296831 0.00479 -0.133646 0.312803 -0.145694 0.082783 0.174635 0.33388 0.051838 -0.087624 0.013161 0.350339 0.057932 -0.244101 -0.118085 0.030189 -0.183774 -0.010125 -0.042096 0.176347 0.0535 -0.133275 0.139733 0.224402 0.246447 0.136539 0.021407 -0.013755 0.184139 -0.086253 0.366928 -0.873696 0.174324 -0.136567 -0.399603 -0.577892 0.231595 0.198669 -0.026362 -0.327151 0.164647 -0.09781 -0.015691 0.011906 -0.544141 0.259055 0.448189 0.463656 0.177634 0.340986 0.023065 0.160829 -0.0967 0.214008 -0.057393 -0.244079 -0.20054 -0.191841 -0.028614 0.202193 -0.3213 0.423291 0.173976 -0.310875 0.015255 0.244209 -0.049577 -0.434327 1.21E-4 0.169932 0.029488 -0.244957 0.141235 -0.128817 0.083084 0.10359 0.189675 -0.146065 0.359323 -0.391932 0.088092 -0.07333 0.321291 0.134083 0.136854 -0.17858 0.294947 0.027102 0.378341 0.246949 0.090917 -0.498006 -0.206286 0.01433 -0.071911 -0.454595 0.063809 -0.00843 -0.061992 0.274056 -0.333769 0.074708
psychiatry -0.04723 -0.228274 0.477861 0.297922 0.009343 -0.487614 -0.370273 0.084128 -0.413058 0.096055 0.183458 0.094312 0.090362 -0.890588 0.280533 -0.309107 0.527519 0.551196 0.059424 -0.61132 0.100768 -0.08172 -0.155841 0.218368 -0.388679 0.433998 -0.380064 0.552673 -0.604403 0.020121 -0.039134 0.047158 0.206091 0.167214 0.688187 -0.106721 -0.026896 0.26696 -0.039093 0.228799 0.403309 -0.545219 -0.562198 0.077927 0.654618 0.282824 -0.201382 0.503378 -0.073427 -0.207527 -0.189753 0.137964 -0.448057 0.668987 -0.251036 -0.163251 0.003922 -0.440347 0.01046 0.147867 -0.231442 -0.361435 0.14837 -0.010366 0.365242 0.213423 -0.17413 -0.045158 -0.397964 0.225656 -0.261665 0.362408 -0.220787 0.163395 -0.172101 0.116509 -0.199572 -0.039394 0.285663 0.206478 0.441454 0.122975 0.29151 0.437657 -0.459084 0.250267 -0.42475 -0.224831 0.323372 0.063107 -0.140283 -0.043509 -0.301673 -0.333688 -0.156853 -0.00356 -0.066539 -0.23404 -0.004031 -0.268433 0.067097 -0.036629 -0.536456 0.285333 0.036839 -0.826681 0.019769 -0.117193 0.400197 0.585274 0.190756 0.334369 0.041228 -0.205351 0.082617 0.474665 -0.410164 -0.118721 0.109136 0.184329 0.286508 0.101503 0.177136 -0.167819 0.110871 0.159769 0.11133 0.019684 0.20565 -0.106591 0.054525 0.376213 -0.328301 0.332593 0.157306 -0.490047 0.346656 0.019934 -0.275739 -0.502034 0.252142 -0.039676 -0.421406 0.179486 0.667463 0.278213 -0.354013 0.267926 -0.531339 0.437956 0.237815 -0.605328 -0.666761 0.026474 -0.045908 -0.038402 -0.232097 0.015932 0.130733 -0.364553 -0.164562 0.635939 0.091585 -0.335587 0.800121 -0.10573 0.069047 0.433813 0.471784 0.325096 -0.308593 0.611462 0.532093 0.077616 0.045184 -0.327668 -0.418382 -0.593518 0.242015 -0.381486 -0.001634 0.129235 0.118082 0.044206 0.692865 0.429716 0.127217 0.07988 0.01352 -0.290358 0.442495 -1.100292 0.48374 -0.493567 0.113786 0.595075 -0.199142 -0.071674 -0.12016 0.560946
asylum -0.520138 0.078035 0.351312 -0.363829 -0.400123 -0.300706 -0.539531 -0.253691 -0.006236 0.496217 0.293339 0.118257 0.258557 0.046003 0.272309 0.020189 0.265383 0.20297 -0.233433 0.002317 0.312611 -0.397559 -0.209531 0.569756 0.259097 0.776852 -0.379456 0.423561 -0.180663 -0.480412 -0.38759 0.104062 -0.676635 -0.519698 0.111206 -0.224762 -0.1378 -0.558683 -0.324184 -0.088204 0.110477 -0.28741 -0.058025 0.031506 0.332301 0.10124 -0.195767 -0.426397 -0.559632 0.585245 0.014721 0.38724 -0.342273 0.257075 0.395076 0.576357 0.410063 0.654989 0.211746 -0.444602 0.427328 0.287566 0.135858 -0.375117 -0.042549 -0.526871 0.086573 0.522854 -0.717547 -0.006781 0.267864 -0.593805 -0.275745 0.081363 -0.453705 0.361307 -0.074333 -0.30493 0.551689 0.138911 0.452798 -0.385917 -0.186067 0.206974 0.102713 0.100166 0.30266 0.048617 0.465271 -0.341001 -0.204 0.105177 0.475966 -0.051339 0.06022 -0.177533 0.008139 -0.454975 -0.257459 0.285172 -0.499951 0.49352 -0.122015 -0.093498 0.379 -0.202057 0.007267 -0.326885 0.057095 -0.111322 0.149148 -0.006377 -0.508015 -0.17003 0.024883 0.203673 -0.058082 -0.189707 0.085601 -0.111251 -0.269302 0.017077 -0.086259 0.212951 -0.013853 0.017364 0.332283 -0.014972 0.122878 0.090083 0.256709 0.364929 0.020206 0.066524 -0.023136 -0.036864 0.457831 0.021435 -0.467158 0.152293 -0.048958 0.214813 -0.564263 -0.021959 0.599107 0.190616 -0.098037 0.229117 -0.439688 0.591776 -0.121567 -0.058929 -0.599088 0.182325 0.079093 -0.125312 0.239192 -0.099636 -0.279174 0.102391 -0.087545 0.441384 -0.097677 0.191662 0.566175 0.352589 0.356376 -0.050057 -0.119422 -0.190607 -0.181011 -0.025837 0.161728 0.122999 0.490636 -0.534228 -0.127814 -0.468852 -0.145313 -0.198916 -0.50335 -0.088095 0.284034 0.20424 -0.088397 0.598412 0.29773 0.492579 -0.073392 0.724375 0.191217 -0.192058 0.267021 -0.539601 0.255462 0.07038 -0.955483 0.026354 -0.058998 -0.20783
manslaughter 0.236581 -0.137864 0.817812 0.580335 0.112118 -0.190553 -0.535616 0.104092 -0.063809 0.239798 0.560589 0.543607 0.014959 -0.431402 0.543717 -0.711752 -0.082644 0.376137 -0.08684 -0.274359 -0.033313 -0.024892 0.098747 0.813099 -0.044189 0.623338 0.248483 -0.082977 -0.328145 -0.079268 0.198615 0.685565 -0.223644 -0.382879 0.081202 -0.149232 -0.119577 -0.292786 0.629524 0.057035 -0.133583 -0.534677 -0.385512 0.075484 -0.38158 -0.26824 -0.197489 -0.293638 0.211896 0.235028 -0.478011 0.415011 0.142606 0.49473 -0.519696 -0.375346 0.156698 -0.347253 -0.361785 -0.053336 0.72235 -0.008018 0.439034 0.322959 0.144528 -0.066721 0.072498 -0.020829 -0.104826 0.242379 0.158481 -0.213392 -0.955402 0.376184 0.548066 -0.348906 -0.673087 0.049944 0.736493 0.677879 -0.193525 0.746369 -0.188636 0.007984 -0.08391 0.456236 0.41929 -0.330929 0.209519 -0.256692 0.34428 -0.042322 -0.396127 -0.177115 -0.011087 -0.491197 -0.616404 0.257844 -0.435453 0.153163 -0.077303 0.42555 -0.522035 0.06554 0.779671 -0.230269 0.445493 0.046738 -0.101853 -0.360426 0.415761 0.240114 -0.591175 0.32658 -0.001645 -0.301822 -0.231858 0.46801 0.180289 -0.175527 0.212114 0.352281 -0.281148 0.201002 -0.09597 0.871223 0.024995 0.280827 0.401121 -0.361445 0.267112 -0.376303 0.340953 0.170086 0.088309 0.025876 -0.193743 0.117627 -0.23446 -0.26077 -0.616911 -0.53477 -0.78693 0.911761 0.401729 0.127699 -0.165677 0.139623 -0.515714 0.724962 0.128776 0.04783 -0.188013 0.644466 -0.462139 -0.464234 -0.820492 -0.226479 -0.431827 -0.432177 0.041808 0.541087 0.226191 0.042483 0.661328 -0.642984 0.317536 0.059929 0.603294 0.199871 0.127787 -0.509325 0.010564 0.302798 0.512555 -0.500299 -0.454177 -0.361248 -0.121229 -0.349147 0.393332 -0.2069 0.529694 -0.231807 0.161692 0.527093 0.028306 0.053723 0.533928 0.002169 0.218969 0.05042 0.068307 -0.362599 -0.252076 -0.391202 -0.537146 -0.458605 -0.129558 -0.295359
music -0.594905 -0.37306 -0.016232 0.232247 -0.177726 -0.173816 -0.107239 -0.055582 -0.459009 -0.017524 0.072927 0.221743 0.030919 -0.197706 0.165469 -0.193525 0.239026 0.234366 -0.409605 -0.439934 0.199438 -0.162987 0.011667 0.081133 0.438959 -0.330479 -0.347811 -0.100357 -0.305728 -0.044644 -0.251152 -0.335793 0.498226 0.271299 0.119919 -0.203412 -0.223423 0.158718 -8.33E-4 -0.350356 -0.038996 -0.172251 0.105497 0.177771 0.120393 -0.022547 -0.27904 -0.176853 0.122221 0.265492 -0.14972 -0.081172 -0.257328 0.59694 0.066043 0.022389 0.311594 0.140065 0.067566 -0.326611 -0.059542 0.1872 -0.112696 0.085946 0.12533 0.108634 -0.519726 -0.022302 -0.195573 -0.042139 0.174739 0.169618 -0.154921 0.25412 0.224579 0.352503 -0.204322 0.130556 0.187255 -0.028361 -0.007128 0.552019 -0.472584 0.119707 0.362437 -0.166054 -0.03414 -0.303195 -0.050966 0.451426 0.481834 0.464799 0.039017 0.356484 0.150003 -0.166345 0.074548 -0.093247 -0.094692 -0.290596 -0.15324 -0.232969 -0.167383 0.014845 0.119112 -0.208624 0.149524 0.275489 -0.292004 -0.253914 0.417518 0.009975 -0.017313 0.017068 -0.285714 -0.197813 0.257949 0.112703 0.273448 -0.242014 0.071576 -0.340318 0.1346 -0.244638 -0.1022 -0.290018 0.028979 -0.588308 0.139882 -0.382295 -0.371864 -0.035124 -0.205777 -0.135432 -0.060314 0.077628 -0.020268 -0.174032 0.110217 -0.154931 0.490959 0.127382 0.312202 0.241726 0.054174 0.34658 0.188769 0.503955 -0.159478 0.245905 0.007342 -0.359726 -0.18222 -0.111548 0.197157 -0.113165 0.204523 0.094356 -0.213746 0.156306 -0.517933 0.086184 0.311488 0.17664 0.442936 -0.354323 0.442424 -0.025567 -0.014965 -0.288615 -0.495937 0.062478 0.135288 -0.018605 0.147797 0.081646 0.161327 -0.065354 0.049031 0.097717 0.40887 0.294771 0.319765 0.041916 -0.205146 0.286391 0.239126 -0.429856 -0.232639 0.185348 -0.329601 -0.588029 0.651176 -0.377809 -0.522148 -0.225414 0.342912 -0.144628 -0.165808 0.023077
record -0.125671 0.036608 0.204962 0.00522 0.268107 -0.261811 -0.417977 -0.399961 -0.198806 0.041897 -0.497641 -0.136753 0.05276 0.031183 -0.21864 0.05884 0.123452 -0.211717 0.072737 -0.0189 -0.361082 -0.148411 0.106523 0.043426 0.250432 0.051335 0.226167 0.035234 0.099712 -0.04842 -0.112793 -0.572678 0.833433 0.256767 0.225089 0.011406 0.034809 0.162759 0.164754 -0.016969 0.383132 -0.089899 -0.181377 -0.382227 0.230124 0.211111 0.023775 -0.044957 0.156498 0.306715 0.144184 0.547369 0.17028 0.292089 0.583487 0.032648 0.177999 0.175819 0.036522 -0.532308 -0.076373 0.369973 0.115801 0.097456 0.387993 -8.71E-4 -0.271232 -0.040268 -0.259054 -0.032728 -0.031454 0.199366 0.069606 -0.515579 -0.2514 -0.153086 -0.176389 0.04658 0.333347 -0.19305 0.199128 -0.206934 -0.391085 0.254157 0.494697 -0.162842 -0.190741 0.030376 0.23891 -0.083312 0.04486 -0.15853 0.145223 -0.081523 -0.089453 0.019139 0.122889 -0.146657 -0.018895 0.126477 -0.185873 0.358693 0.011589 0.215889 0.108412 0.21159 0.104403 0.36313 -0.056833 -0.011429 0.320898 -0.126612 -0.081075 0.098993 -0.45556 -0.536846 0.023087 0.189267 0.380681 -0.203313 -0.20054 0.156024 -0.103479 0.127557 0.041882 -0.413638 -0.021733 -0.152725 0.417356 0.056952 -0.269107 -0.381563 -0.021449 -0.347857 0.826321 0.223453 0.076973 -0.271162 -0.033143 0.394873 -0.079577 0.090502 -0.191209 0.268969 0.437492 0.097784 -0.21848 0.273495 -0.009255 0.085481 0.073509 -0.045969 -0.153398 -0.166505 -0.021068 -0.238636 -0.241403 0.480456 -0.478039 -0.131941 0.153755 0.065608 0.53615 0.349807 0.176897 -0.645486 0.255974 0.442795 -0.046395 0.030206 0.054224 -0.065435 0.243351 -0.222524 -0.280472 0.161409 -0.181809 0.213261 -0.031173 -0.601077 0.806606 -0.133924 0.046839 -0.13567 -0.391791 0.10024 0.283117 -0.262071 0.177793 0.113815 0.324163 0.216091 -0.059084 0.11868 -0.062424 0.088471 -0.334841 0.262208 0.301906 -0.229143
energy -0.066239 0.100847 0.117059 0.172635 -0.151662 -0.165436 -0.061873 0.277869 -0.283411 -0.156724 -0.185922 -0.146236 0.147218 -0.112444 0.261518 -0.008193 -0.080406 0.349614 -0.134278 -0.523124 -0.356394 -0.350893 -0.291411 0.271514 -0.24458 0.244041 -0.151935 0.236726 -0.062839 -0.046015 -0.488335 -0.174717 0.13043 -0.122303 0.055328 0.251832 0.13863 0.0559 -0.295604 -0.082153 -0.515137 0.725634 -0.001768 -0.148726 0.472564 -0.110469 -0.107634 0.12706 0.007188 0.556788 0.375027 0.067223 -0.156529 0.646954 0.029188 -0.217891 0.290404 -0.155906 -0.38319 -0.06014 -0.048458 -0.013993 -0.348767 -0.313145 -0.313746 0.340603 0.112006 0.373845 0.103819 -0.21376 0.176382 -0.1939 0.187018 0.185696 -7.94E-4 0.219114 0.253944 -0.080633 0.009391 0.217198 0.408988 -0.100446 -0.283248 0.374313 0.4333 0.154204 0.108507 -0.233917 0.004625 -0.102392 0.129088 0.155908 0.24507 0.070711 0.034356 -0.2422 0.134108 -0.116464 -0.089177 0.39466 -0.24347 0.033312 0.213244 0.084493 0.315584 0.127409 -0.320275 0.26277 -0.080302 0.078019 -0.215097 0.129214 -0.021357 0.211067 -0.318883 -0.300487 0.254394 -0.230349 -0.021976 -0.073251 -0.176866 -0.078908 0.422676 0.590791 -0.072552 -0.104002 0.128217 -0.622308 0.677797 -0.020612 -0.371617 -0.363711 -0.497626 -0.060837 0.081078 -0.380126 0.122366 -0.327483 -0.329185 0.259129 -0.108188 0.176546 0.288971 0.425464 -0.213802 -0.053248 0.012508 0.512327 -0.013585 -0.100076 -0.151522 -0.617021 0.077535 0.067505 -0.500014 0.26013 0.102922 0.060826 0.19184 0.028547 0.071127 0.308856 0.366018 0.082004 0.075367 0.074159 0.373921 0.144078 0.476987 0.458971 -0.080836 0.046207 0.017473 0.319904 -0.253963 -0.132568 -0.188453 -0.279202 0.184956 0.203212 0.253898 0.120695 0.496859 -2.45E-4 0.24876 0.178455 0.115416 0.442435 -0.220438 0.038679 -0.198634 0.260878 -0.036504 -0.117504 -0.522999 0.576882 0.093333 0.071651 -0.236957 -0.093419
announcement -0.354048 -0.260164 -0.533323 0.212032 -0.407773 -0.265856 -0.3904 0.090941 0.094741 -0.034315 -0.007354 0.631162 0.044442 0.291946 -0.150275 0.080768 0.097735 -0.181296 -0.355611 -0.312666 -0.142464 -0.184877 -0.085071 0.252811 -0.160967 0.45142 -0.090644 0.022112 0.007501 -0.128439 0.099627 0.32738 0.126277 0.005069 0.005461 0.148768 -0.602679 0.040096 -0.208673 0.164567 -0.245122 0.309918 0.103622 -0.178932 0.458167 -0.109398 0.160789 -0.051282 0.232088 0.409118 -0.167114 0.299756 0.50723 0.452575 0.296079 0.030724 0.008588 0.195586 0.134429 0.360505 0.302832 0.452985 -0.608726 0.14523 0.304313 0.27113 0.087703 -0.245147 -0.183182 0.140208 -0.047835 -0.03662 -0.079502 -0.10488 -0.07776 -0.415559 -0.232119 -0.012732 -0.178053 0.060708 -0.557581 -0.004016 -0.117145 -0.179185 0.063952 0.045033 -0.137467 -0.411122 -0.193556 0.32427 0.566902 0.133387 -0.11624 0.036658 -0.090639 -0.178098 0.313104 -0.128317 0.211401 0.34884 0.123564 0.14262 0.315333 -0.213971 0.181447 0.004138 -0.028566 0.240832 0.162219 0.235973 -0.12204 -0.005776 0.32871 -0.253182 -0.717066 0.367089 0.061677 0.117628 -0.25632 0.138204 0.609524 0.135221 -0.248759 0.025428 0.141975 -0.3051 0.2141 -0.185089 0.270093 -0.491654 -0.073672 0.393759 0.136993 -0.131445 0.098736 -0.131301 0.232072 -0.085637 0.402066 -0.088656 0.280593 -0.397653 -0.06945 0.308927 0.254845 0.037129 0.184897 0.188736 0.009493 0.256357 -0.321432 0.097582 -0.097784 -0.168486 -0.434265 -0.056039 -0.240662 -0.676638 -0.190255 0.08027 -0.143141 0.082833 0.366683 0.64076 0.115137 -0.186643 0.00668 0.148467 -0.03436 0.211726 -0.126954 -0.420388 0.23252 0.013964 -0.223751 -0.380396 0.35832 -0.158398 0.404523 0.0689 0.463397 -0.077024 -0.087671 -0.287396 0.119412 -0.32169 0.294957 0.321118 -0.19294 0.130524 0.065629 0.399477 0.053828 0.032081 0.386707 0.052587 -0.090076 -0.16416 -0.229799 0.037043
mile -0.032166 0.196237 0.579714 -0.078754 -0.008491 -0.395851 -0.142168 -0.164861 -0.442197 -0.382625 -0.231122 0.184593 -0.254237 0.28435 0.081549 0.063146 -0.121989 -0.311652 -0.092357 0.799846 -0.149368 0.127486 -0.169353 -0.179377 0.324679 0.398879 0.13372 -0.20729 0.162702 -0.007977 -0.017747 0.247281 -0.12344 0.330355 -0.23295 0.274183 0.002617 0.346012 0.523184 0.217907 -0.562114 -0.164729 -0.217717 0.496445 -0.288476 -0.285083 0.062572 0.050024 0.043995 -0.167782 0.074916 0.470405 0.388113 0.223273 -0.159746 0.430174 0.060652 -0.3338 0.260416 -0.209784 0.248557 0.42309 0.094449 -1.060336 -0.022565 -0.409589 0.158459 0.077947 -0.074794 0.184289 0.045121 0.030076 -0.227545 -0.380854 -0.312981 -0.683836 0.129089 0.080589 0.142396 -0.123436 -0.078598 -0.354533 -0.525328 0.220325 -0.027992 0.124634 0.029776 0.071202 0.027755 0.048681 -0.253065 0.386638 0.272766 -0.241603 0.449273 -0.456708 0.086069 -0.286123 0.163915 0.553362 -0.100064 -0.138197 -0.74295 -0.158315 0.027024 0.552185 -0.250327 0.253915 0.392869 -0.167199 0.576333 0.310241 -0.038235 7.31E-4 -0.438422 -0.165986 -0.376715 0.273135 0.069787 -0.24301 -0.36309 0.660298 0.427263 -0.044724 0.129268 0.110123 0.368047 -0.20958 0.36023 -0.666401 0.243435 -0.146543 -0.616405 -0.076326 0.020506 -0.183932 -0.309469 -0.452732 0.310044 0.435886 0.138672 -0.08703 -0.257924 0.559835 -0.12267 -0.277936 -0.189814 0.595876 -0.197413 0.290814 0.010769 -0.259342 -0.050072 -0.359331 0.285987 0.042393 -0.343764 -0.565896 -0.042638 0.098402 0.20366 0.594519 -0.046265 0.389605 -0.5625 -0.47619 0.149573 0.162188 0.490184 -0.392045 -0.357047 -0.233109 0.214213 -0.104888 0.264397 -0.186217 -0.586219 -0.468896 -0.182358 -0.078291 0.110515 0.257565 -0.079774 -0.045435 0.112924 -0.181788 -0.114013 0.044975 -0.354579 -0.194003 -0.396545 -0.477154 -0.036207 -0.159272 -0.173205 0.214979 0.386066 0.131567 -0.242448 0.024594
airport 0.060854 -0.080811 -0.07134 -0.47269 -0.539162 -0.049389 -0.232026 -0.519423 -0.218949 0.212617 0.353867 0.28186 0.39854 -3.57E-4 0.066981 0.576385 -0.050029 -0.024645 -0.284125 0.43573 -0.45774 -0.367851 0.106882 0.486147 -0.326737 0.325209 -0.152762 0.137748 -0.436655 0.118151 -0.031774 0.196609 0.033417 0.092717 0.451576 0.210814 -0.229124 -0.225345 -0.020832 0.243771 -0.20766 -0.248847 -0.192305 0.367184 0.326068 0.076788 -0.299362 -0.237154 -0.472003 0.618775 0.336236 0.046423 0.007305 -0.208873 -0.055961 0.261528 0.461812 -0.276859 0.185619 -0.208341 0.617868 0.167714 0.008871 -0.108644 0.081574 -0.500781 -0.025093 -0.058191 0.166629 -0.189974 -0.229305 -0.011475 -0.206253 0.318594 -0.482557 -0.395915 -0.369965 0.034443 0.101257 0.399593 0.320767 -0.057357 -0.094424 -0.283067 0.012871 0.012553 -0.219183 -0.199736 -0.237054 0.233079 0.038292 0.450905 -0.068682 -0.142659 0.553577 -0.100024 -0.061423 -0.252657 -0.096103 0.53037 -0.024373 0.123643 0.053483 0.025638 0.377018 -0.3681 -0.422707 0.035215 0.64083 -0.157929 0.440364 0.351145 0.020318 0.232902 -0.407437 -0.076562 0.449096 -0.255549 -0.254688 -0.042903 -0.109061 0.372824 -0.205035 -0.123131 0.059209 -0.059856 0.484701 -0.4739 -0.234382 0.032352 -0.054483 -0.052935 0.184902 -0.116286 0.032056 -0.259837 0.201525 -0.020173 0.009997 -0.030855 0.052097 -0.242567 0.197795 0.350971 0.002966 0.329801 0.195578 0.34509 0.070264 0.588028 -0.477774 -0.025574 -0.091927 0.13375 -0.36459 -0.032693 0.216517 -0.14895 -0.120853 0.074067 0.21346 0.288766 -0.291002 0.323861 -0.17476 -0.288888 0.138899 0.199098 0.068757 0.43147 -0.332058 -0.283768 0.018267 -0.18109 0.079387 -0.242358 -0.499961 -0.560028 -0.230901 -0.582705 -0.39852 0.068569 0.191226 -0.369532 0.066398 0.358889 0.286364 0.275701 0.25145 0.046307 -0.410107 -0.400533 0.284184 -0.1471 -0.333015 0.18575 0.185953 0.233325 -0.052761 0.296741
population -0.133608 -0.733512 0.313559 0.322909 -0.449239 -0.337618 -0.305574 -0.859064 -0.244672 -0.392888 -0.088986 0.325565 -0.122234 0.076462 0.099348 0.226087 -0.055949 0.24562 -0.185119 0.370739 0.0711 -0.115634 -0.103876 -0.14779 0.0831 0.23671 0.195528 0.358099 0.04691 -0.11308 -0.413153 0.073348 -0.1538 -0.042052 -0.004628 -0.500264 0.11335 -0.36316 -0.029628 0.639113 -0.364336 0.093858 -0.394542 0.24116 0.162437 0.563569 -0.436787 -0.254543 0.001264 -0.32364 -0.02407 -0.155279 -0.001541 0.53084 0.365373 0.227494 0.063419 0.410693 0.065632 -0.084547 -0.24965 -0.262105 0.218488 -0.231238 0.095312 -0.364165 0.165666 0.149527 0.033146 -0.167949 0.03514 0.304025 0.080932 0.060677 -0.265098 -0.178109 -0.103174 -0.492391 -0.017127 0.267805 0.402028 -0.311443 0.146719 0.324521 0.092326 0.090852 -0.342812 0.147844 0.068812 -0.399594 0.359572 -0.082508 0.088162 -0.024698 0.052476 -0.521531 -0.172863 -0.324072 0.755674 -0.18901 0.269139 0.059229 -0.203739 -0.067166 0.05138 -0.361254 -0.225323 -0.116698 -0.008686 0.167858 -0.388654 0.021546 -0.193578 -0.502336 -0.343823 -0.059971 -0.021649 -0.033555 0.594843 -0.617808 0.126 0.134721 0.187423 -0.348489 -0.029435 0.190626 0.554933 0.022143 0.299156 -0.457421 -0.023027 0.037772 -0.317524 0.380717 -0.132188 0.013713 -0.123659 0.08603 -0.415464 0.263953 0.085646 0.147185 -0.095169 0.37429 0.317367 0.521364 -0.23177 0.30221 0.166874 -0.132082 -0.426234 -0.457631 -0.271146 0.137621 -0.232284 0.441919 -0.278824 0.294045 0.203629 -8.54E-4 0.006367 0.66565 0.067156 0.264362 -0.072103 0.10669 0.374311 0.228935 0.16299 0.152943 0.206261 -0.109697 0.228938 0.220979 0.277852 -0.37495 -0.318474 0.093975 -0.045541 0.001694 0.336646 -0.388784 0.215986 0.399229 0.218851 0.441348 0.247773 0.210676 -0.034717 0.158175 -0.577809 0.183733 0.392867 -0.043458 -0.097297 0.138186 -0.422731 0.380136 -0.350098 0.216624
planning -0.161041 -0.293746 0.128452 0.021967 -0.314148 -0.043064 -0.082302 0.311244 -0.342464 -0.330614 0.233875 0.129452 0.289627 -0.568212 -0.016479 0.366295 -0.058948 6.8E-5 -0.243021 -0.367154 -0.278722 0.251039 -0.269046 -0.066521 -0.031404 0.604081 -0.421688 0.069149 -0.477819 -0.047042 0.131609 -0.035006 -0.205002 -0.160785 -0.149595 0.025796 0.030124 -0.066941 -0.162413 -0.018009 0.213142 0.073807 -0.147372 -0.023436 0.479098 0.28715 -0.180827 0.120928 -0.005213 0.251543 -0.186148 0.314581 0.070966 0.15783 0.017499 -0.163251 0.101662 0.009795 0.164631 -0.010565 0.363814 0.088341 0.427944 -0.049015 0.111553 0.167996 0.166555 0.177622 0.168827 0.280259 0.337381 0.042838 0.044661 0.285722 0.209423 0.124589 0.056155 -0.045849 0.160802 0.13246 -0.199322 0.055302 -0.36335 -0.079358 0.187745 0.251784 0.042853 -0.420222 0.049936 -0.123285 0.059366 0.405703 0.206524 -0.130645 -0.101286 -0.272542 0.212596 -0.018869 0.214394 0.227037 -0.355226 0.532556 0.178131 -0.484455 0.397043 0.133498 -0.199199 -0.117982 -0.100047 0.118267 -0.159499 0.146822 0.060062 -0.023229 -0.420007 0.185786 0.303205 0.099138 -0.115209 0.02499 -0.041498 -0.111426 0.280656 -0.036884 0.137605 -0.13246 0.069491 -0.606004 0.02369 -0.236755 -0.087943 -0.109168 -0.424998 -0.301684 -0.138997 -0.038952 -0.165501 0.249317 0.12234 0.215428 0.042324 0.097957 -0.094201 0.029827 0.100855 0.10757 0.012345 0.007544 -0.133563 0.47611 -0.09008 0.244374 -0.010913 0.091336 -0.566628 -0.103451 -0.025366 0.207163 0.102169 0.233586 0.011167 -0.043064 -0.0981 -0.180067 -0.067046 -0.001248 0.254732 0.160112 0.007044 0.025756 -0.069264 -0.158023 0.049113 -0.226312 0.173692 0.045359 -0.208762 0.062358 0.312753 -0.403147 -0.13925 -0.00906 0.372934 -0.48883 -0.181749 0.189782 0.248534 0.196753 0.114016 0.007626 0.038691 -0.341434 0.315402 0.126331 0.078547 -0.232198 -0.278775 -0.299173 0.029863 0.373857
canyon -0.373999 0.046639 0.250907 -0.043319 0.048676 -0.239668 -0.01034 -0.696506 -0.494706 -0.363388 0.139878 0.26532 -0.257475 0.398169 -0.062717 -0.522605 0.200301 -0.288086 0.091015 0.337996 -0.082698 0.009479 0.207834 0.371401 -0.265549 0.60164 -0.346308 -0.24927 -0.410432 -0.006699 0.286191 -0.088632 0.00378 -0.068043 0.035266 0.844318 -0.079273 -0.142201 0.536181 -0.060066 -0.465532 0.114204 -0.314694 0.346554 0.12683 0.175379 -0.165188 0.385863 -0.091528 0.379295 0.426668 0.108565 0.002408 0.354851 -0.292416 0.122365 -0.029884 0.056033 -0.614718 -0.59646 0.167731 -0.209364 0.421135 -0.326491 0.193512 -0.319225 0.037752 0.249846 -0.399573 0.330413 -0.217051 0.325504 0.252195 0.18285 -0.348149 -0.642601 0.233649 -0.364885 -0.381282 -0.038873 -0.202239 -0.162956 -0.030474 -0.346444 -0.251802 0.231073 -0.047506 -0.112547 0.03289 0.046764 0.00467 0.007107 0.191767 0.288835 0.520026 -0.095373 -0.085995 0.16838 -0.060344 0.197845 -0.217576 0.10553 -0.327775 -0.591202 -0.050486 -0.190767 -0.010101 0.049383 0.377981 0.191965 0.012953 -0.067796 -0.092998 0.318956 -0.518487 -0.086555 0.046756 0.223151 0.147068 -0.66008 -0.485888 -0.131842 -0.012154 -0.588188 -0.255128 0.169007 0.085787 0.059212 0.153949 -0.570461 0.148939 -0.27512 -0.126658 -0.222082 -0.305885 -0.056028 -0.056854 -0.283301 0.383683 0.31804 0.264808 0.100297 -0.159457 0.235386 -0.201271 -0.166382 -0.464452 0.655608 0.104085 0.368081 -0.221395 -0.362469 -0.475053 0.018515 0.354234 -0.7076 -0.165889 -0.079163 -0.122141 0.261193 -0.280162 0.471677 -0.243859 -0.099285 0.186547 -0.488904 0.178044 0.598342 0.58212 -0.171094 -0.288266 -0.292351 -0.184819 0.517597 0.244208 -0.003243 -0.331402 -0.032064 -0.246768 0.119148 -0.017616 -0.174669 -0.068448 0.426323 -0.142328 -0.239531 0.204547 -0.292072 -0.051251 0.102851 0.047879 -0.583639 0.184325 -0.036511 -0.472273 -0.091587 0.179774 0.430019 -0.522085 -0.415694
delay 0.052604 -0.353838 -0.212825 0.046647 -0.189633 -0.219665 -0.013637 0.312407 -0.123663 -0.065794 0.103322 0.168709 0.106757 0.450703 -0.108655 0.507261 0.009958 0.219992 -0.435266 -0.283305 0.08026 -0.267082 -0.466884 -0.029593 -0.178535 0.693006 -0.079054 -0.065384 -0.417484 -0.112701 0.088579 0.221316 -0.328087 -0.539571 -0.053875 0.06512 -0.198389 0.108365 -0.356538 0.069623 0.157296 -0.124395 -0.539746 -0.090124 0.248996 0.184505 0.188128 0.055265 0.079235 0.500541 0.113671 0.416384 0.108067 0.105557 0.014144 0.2724 0.363507 0.148082 0.190678 -0.399587 0.301066 0.12288 -0.144103 0.557315 0.450742 -0.056587 0.405933 -0.153037 -0.030129 -0.313193 0.465408 0.342081 0.033951 0.245303 0.171969 -0.039057 -0.346078 0.155602 0.202899 0.218627 -0.505538 0.158277 -0.106755 0.238487 0.266973 -0.232051 0.188721 -0.293577 0.383985 0.197777 0.184955 0.148425 0.169868 0.01354 -0.001062 -0.115565 0.295408 0.083193 -0.112824 0.056778 0.163209 -0.132136 0.098642 0.001418 0.082262 0.219847 -0.226893 0.011351 0.100833 -0.252896 -0.07876 0.428554 -0.034615 -0.015166 -0.602973 0.141375 0.131731 0.205045 -0.159832 0.278143 0.165121 0.019266 0.285866 -0.365574 -0.008128 -0.086074 0.324101 -0.115683 0.112161 -0.099396 -0.172723 0.298969 0.098386 -0.391972 0.115425 0.088493 0.178634 0.133757 -7.94E-4 -0.00478 0.199532 -0.173122 -0.317584 0.159953 0.11158 -0.152822 -0.366028 0.186793 -0.128157 -0.030668 0.251352 -0.166151 -0.004609 -0.108604 -0.857494 -0.213568 -0.078353 0.098462 0.075706 -0.121313 0.282425 0.109231 0.1476 0.637913 0.119166 -0.47596 -0.006571 -0.05872 0.274116 -0.174914 0.058965 -0.030467 -0.096749 -8.71E-4 -0.329859 -0.021659 -9.51E-4 -0.214855 -0.295157 0.112225 0.062631 -0.204318 -0.444318 -0.13742 -0.010432 -0.039204 0.083742 0.672002 -0.316605 -0.091026 0.30368 -0.206358 0.197905 -0.088156 -0.032888 -0.04454 -0.394465 0.018122 0.044867 -0.272482
size -0.277059 -0.450238 0.243194 0.226029 -0.175487 -0.294126 0.042768 0.004818 -0.304789 -0.327161 -0.057341 0.31951 -0.083321 -0.260267 -0.067597 0.725702 -7.5E-4 -0.169487 -0.325216 0.087428 -0.14437 0.275001 0.014066 0.211082 0.361882 0.198007 0.156918 -0.467685 0.600361 0.334326 0.081905 0.1731 0.156524 0.151876 -0.090921 -0.378325 -0.082743 0.126297 -0.383134 0.144508 -0.008585 0.270129 -0.368962 0.327578 0.419012 -0.005906 -0.007679 -0.240778 0.125784 -0.165992 0.199627 -0.184243 0.258256 0.180913 -0.112536 0.262094 0.344849 0.172392 0.077547 -0.104695 -0.159124 -0.146751 0.109439 -0.269699 0.031875 0.011863 0.066443 0.341671 -0.231521 0.181411 0.28421 0.058212 -0.387521 0.200385 -0.219364 -0.061265 0.040579 -0.347412 -0.257925 0.455956 0.275932 -0.110131 0.054563 -0.209416 -0.224978 0.475719 -0.400624 0.142863 -0.197816 -0.232221 0.469599 -0.237343 0.162965 0.185394 -0.04972 -0.171821 -0.16984 0.311666 0.591932 -0.124035 -0.202901 -0.259657 0.145973 -0.223351 0.080904 -0.085975 0.170508 -0.096917 -0.081568 0.257032 0.115015 0.061682 -0.027789 0.072778 -0.786458 0.127964 0.187035 0.038182 0.459568 -0.619655 0.064884 0.314552 0.087021 -0.01862 0.219891 0.220834 0.281859 0.020272 -0.192414 -0.111059 0.150701 -0.102277 -0.155284 0.279611 -0.118809 -0.380073 0.007641 0.13131 0.056282 0.023206 -0.116364 -0.074417 -0.037531 0.639936 0.083762 0.234081 0.101912 0.200447 0.316525 -0.041285 -0.088325 -0.226457 0.11668 -0.486194 -0.325363 0.191447 -0.165396 -0.170983 -0.191233 0.12154 0.180362 -0.024011 0.206832 0.249363 -0.130645 -0.364822 0.454154 0.181198 0.621418 -0.232762 0.330769 -0.212087 -0.119384 0.066841 0.154429 0.140422 -0.389092 -0.063158 -0.302225 -0.05745 0.209359 -0.249304 0.430883 0.134253 0.3827 0.027928 -0.050668 0.35562 -0.206671 0.014689 -0.260907 0.125456 0.062324 0.017915 -0.419188 -0.019768 0.093067 0.482367 0.017518 -0.073256
peace 0.111046 0.156096 -0.301173 -0.028394 -0.490681 -0.140516 -0.16949 -0.209372 0.266602 -0.387049 -0.045912 0.066576 0.191728 -0.359407 0.133873 0.252295 0.52542 0.012912 -0.291788 -0.135808 0.071897 0.019589 -0.113934 0.015225 -0.05603 0.214238 0.117721 0.354945 -0.196278 0.117893 0.054545 0.286141 -0.141446 0.432093 -0.374804 0.514633 0.037798 -0.418971 0.025875 -0.232053 -0.120696 0.146356 -0.140166 0.159116 -0.504826 0.308812 -0.686001 0.333007 -0.414228 0.499431 0.054219 0.035983 -0.033323 0.550643 0.51048 0.624721 0.268714 -0.301992 -0.147916 -0.562016 0.62975 -0.003043 0.527031 -0.2887 0.734912 -0.063194 -0.67656 0.530716 -0.184944 0.268404 0.112209 -0.159076 -0.173232 0.100394 -0.108377 -0.251613 -0.066822 -0.137161 -0.240644 0.228008 0.162435 0.1424 -0.306068 0.300083 0.368233 -0.194948 -0.031643 -0.366485 0.232447 0.223326 0.367187 0.781525 0.100909 0.11728 -0.066507 -0.417215 0.025874 0.255961 -0.428441 -0.133465 -0.485698 0.038784 0.171215 0.227623 -0.042178 -0.524117 -0.276859 0.051865 0.305346 -0.478851 -0.418602 -0.03831 0.313698 -0.043897 -0.610106 -0.148741 0.175292 -0.13095 0.063353 0.252958 0.6642 -0.213979 0.113662 0.247511 -0.273858 0.5057 0.334632 -0.211682 0.35968 -0.579897 -0.266336 -0.021208 0.096255 0.092612 0.452718 -0.220974 0.076198 -0.547147 -0.36271 0.18527 0.319387 -0.358363 -0.132359 0.315667 0.605005 -0.294674 -0.209727 0.559888 -0.217648 -0.206197 -0.496005 0.542019 0.046441 0.290813 -0.062676 -0.524086 -0.024003 -0.53574 -0.565418 -0.165271 -0.298013 0.003964 0.036546 -0.206035 0.671963 0.102704 0.143845 0.297715 0.457024 0.149955 -0.323822 0.026413 0.163715 0.330157 -0.853388 -0.329063 0.20133 -0.077443 0.41196 0.045802 0.309634 0.175811 -0.16293 0.48527 -0.082528 0.461338 0.725106 0.615684 -0.186976 0.462319 -0.45917 -0.077267 0.501462 -0.183302 0.068345 0.010901 -0.176267 -0.032407 0.071011 0.257768
science -0.141605 -0.286211 0.138956 0.113815 -0.283282 -0.382883 0.18224 -0.009526 -0.459634 0.091386 -0.374237 -0.271392 -0.192838 -0.640511 -0.274309 -0.166985 0.515779 0.283501 -0.111893 -0.517182 0.154651 0.085657 -0.009243 0.442704 -0.438007 0.323551 -0.231677 0.12186 -0.312238 -0.14666 -0.383492 0.012218 -0.186287 0.034035 0.525091 0.086724 0.393343 0.082497 0.046174 -0.104829 0.122165 0.244881 -0.49717 0.384756 0.44023 0.034644 -0.511536 0.154939 0.077647 0.252187 0.252781 0.287556 -0.045368 0.433588 0.05196 -0.079592 0.24879 -0.05422 -0.069197 0.002165 -0.230238 0.080915 -0.06756 -0.556358 0.485266 0.262424 0.057369 -0.092306 -0.193988 0.262948 0.248122 0.183138 0.455503 0.551798 -0.099839 0.074421 0.051851 -0.023037 0.031973 -0.085262 0.219065 0.095533 -0.375318 0.157352 0.054542 0.506687 -0.285268 -0.295246 0.282444 -0.041249 0.350414 -0.038187 -0.205072 -0.211408 0.18865 0.294423 -0.142955 -0.048247 -0.286716 -0.31454 -0.188506 -0.040545 -0.334552 0.192441 -0.496854 -0.103889 -0.364092 0.051767 -0.192206 0.271362 0.216245 0.203184 0.354743 -0.151161 -0.519084 -0.003812 0.056658 0.347317 0.247213 0.089123 0.26653 -0.111557 -0.051769 0.245112 0.050741 0.209333 -0.220099 -0.171588 0.396336 -0.08837 -0.164141 0.00412 -0.083817 0.16801 0.118961 -0.107348 0.528221 -0.258546 -0.193891 -0.321054 0.294597 0.112187 -0.235497 0.292912 0.306767 0.270404 -0.119056 0.037141 -0.320813 -0.130179 -0.167285 -0.458049 -0.73817 0.235309 -0.188696 0.098441 0.041754 0.150678 -0.292177 0.129444 -0.025341 0.090991 -0.224194 -0.285237 0.295392 0.048155 0.050092 0.197405 -0.135437 -0.271285 -0.373978 0.168926 -0.149586 -0.017616 -0.233569 -0.029704 -0.385599 -0.125952 0.170603 -0.288387 0.312227 0.07142 0.141175 0.010344 0.615237 0.150745 0.353778 0.060342 -0.296449 0.131529 0.040771 -0.355616 0.224215 -0.311198 -0.091601 0.260516 0.248302 -0.008249 -0.217769 0.225939
dawn -0.149559 0.179665 0.362156 0.101496 -0.748652 -0.414666 -0.394211 -0.113059 -0.171583 -0.234784 -0.272133 0.168674 -0.106019 0.144126 -0.377193 -0.038439 0.359693 0.082248 -0.09377 0.297831 0.23477 0.018795 -0.010163 -0.050241 -0.419375 0.361546 0.007676 0.036145 -0.316916 -0.127969 0.040834 0.083733 0.258982 -0.063702 0.239826 -0.067659 -0.252435 -0.048188 -0.028977 -0.198547 -0.243186 -0.080935 -0.007852 0.202814 -0.136196 0.090792 -0.409037 0.175419 0.078834 0.459469 -0.162938 0.333056 0.307117 -0.237512 -0.125018 -0.046197 0.299708 -0.107695 0.06182 -0.200789 0.434284 -0.155547 -0.188717 -0.133294 0.222412 -0.138017 -0.061633 0.261257 -0.506802 0.077776 -0.868195 -0.011459 0.373047 0.24774 -0.083555 -0.304697 0.356906 -0.015805 0.219838 -0.175946 -0.258587 0.137065 -0.432432 -0.195405 -0.229684 0.096265 -0.015112 -0.071475 0.112637 -0.044723 -0.243949 0.460337 0.283008 0.417117 0.18826 -0.085077 0.16081 -0.203751 -0.078303 0.253477 0.156621 -0.537919 0.466755 -0.113611 -0.210892 -0.205626 -0.081016 -0.047977 -9.24E-4 0.349506 0.070517 0.340519 -0.01849 0.049887 -0.33809 -0.087457 0.194917 0.003119 -0.255026 -0.406351 -0.133567 0.35353 -0.361847 -0.138784 0.137021 -0.016375 0.268841 0.301799 0.521358 -0.376126 0.12615 0.234012 -0.076921 0.116709 -0.063824 -0.377508 -0.378807 -0.366749 -0.07833 -0.118297 0.310551 -0.099255 -0.078167 0.449086 -0.220293 0.054802 0.059533 0.362646 -0.222098 0.367023 0.358857 -0.166674 0.037704 -0.320188 -0.197091 -0.157718 -0.502109 -0.222547 -0.105815 0.087589 -0.518186 0.080917 -0.43863 0.180268 -0.068934 -0.497957 0.118534 0.054544 0.04812 0.295543 -0.46041 -0.311304 -0.412782 -0.015678 -0.094805 -0.224856 -0.170448 -0.309073 0.264397 -0.317153 0.304161 -0.246672 -0.163859 -0.28343 -0.254635 -0.026834 0.683596 0.018177 0.362127 0.315027 -0.50254 -0.424616 0.389618 -0.25086 -0.111697 0.132398 -0.450653 0.003734 -0.101338 0.126673
brother -0.142981 -0.536679 -0.2202 -0.217966 -0.151281 -0.050574 -0.398957 -0.246147 -0.201355 -0.204391 0.283767 0.203703 -0.109063 -0.019022 0.076691 0.250335 0.084527 0.244703 0.59539 -0.02815 0.219833 -0.113479 0.212059 0.344699 -0.024194 0.242139 0.049336 0.005883 0.134972 0.080879 0.459429 0.172414 0.077278 -0.335844 -0.254636 -0.132719 -0.584649 -0.498996 0.035843 0.332767 -0.499397 0.104751 -0.501163 -0.328383 -0.054703 0.023899 0.086715 0.262161 -0.126854 0.225175 -0.424173 -0.148691 0.272364 0.155295 -0.382479 0.089708 -0.17998 -0.066423 -0.05105 0.098245 0.397701 -0.074437 -0.224791 0.001996 0.021716 0.326615 0.04392 -0.042825 -0.061965 -0.160787 0.144072 0.41827 -0.591623 0.153058 0.762951 0.277104 0.213157 0.375392 0.295748 0.266079 0.216004 -0.073122 -0.491674 0.065414 0.40375 -0.017962 -0.050758 0.111163 0.370636 0.123902 0.063664 -0.071402 0.040476 -0.027211 0.160688 -0.047102 -0.003631 -0.076991 0.519501 -0.435542 -0.454047 0.246179 0.281007 0.254673 0.293809 -0.200743 0.330849 0.164292 0.375256 0.442866 0.359024 -0.409821 -0.703063 0.115057 -0.14395 0.144472 0.101522 0.210133 0.075376 0.093821 -0.150328 0.175083 0.141203 0.146219 -0.058609 -0.014629 -0.131903 0.298468 0.131739 0.223628 -0.080516 -0.061104 -0.160403 -0.167867 0.10536 -0.56806 0.049688 -0.188584 -0.177861 -0.215831 0.085892 -0.222696 0.104096 0.11772 0.180308 0.022303 0.006549 0.157084 -0.386574 0.426924 -0.290891 0.021218 -0.119018 0.288528 -0.40544 -0.140983 -0.059021 -0.101323 -0.511024 -0.121274 0.017714 0.51303 0.130867 0.271328 0.026094 -0.179111 0.206889 -0.151339 0.099734 -0.337068 -0.593257 -0.106013 0.452228 0.282329 0.117822 -0.239658 0.100169 -0.177474 -0.182198 -0.038016 0.095849 -0.243945 0.187717 -0.133008 0.146525 0.301243 0.207827 0.307324 0.023523 0.036436 -0.374638 -0.675976 0.002672 -0.265568 -0.023317 -0.671858 0.297915 -4.08E-4 -0.17848 0.309976
wine 0.027941 -0.116706 0.177142 0.169053 0.008157 -0.52664 -0.013234 0.206924 -0.437265 -0.207412 0.268602 0.03098 0.015692 -0.174555 -0.090339 -0.367472 -0.327188 0.279387 -0.088574 -0.069432 0.234015 -0.265475 -0.237802 0.266893 0.626416 0.425763 0.049428 -0.156206 -0.406296 0.226846 -0.161678 -0.132637 0.560252 0.112325 0.070996 0.138884 -0.454988 0.147574 -0.021917 -0.417221 -0.346251 -0.11281 -0.068545 0.034191 0.075712 0.070216 0.013803 -0.238129 0.00279 0.037557 0.541766 -0.116433 0.014753 0.809391 -0.145529 0.440486 0.206856 -0.308125 -0.065064 -0.3383 -0.156211 0.093967 -0.206669 -0.197285 -0.300973 0.072384 -0.454946 0.276996 -0.219952 -0.025148 0.050757 0.053401 0.098148 0.1383 0.050472 0.289812 -0.07382 -0.306095 0.125344 0.277296 0.45964 0.298617 -0.152109 0.1598 0.26104 0.303099 -0.563254 -0.5231 0.198361 0.029631 -0.024621 0.339849 0.547656 -0.138221 0.079453 -0.161179 -0.404263 0.062933 -4.38E-4 0.237005 0.111823 -0.108193 0.319027 -0.060017 0.236889 -0.223298 -0.152271 0.194683 -0.108989 -0.39303 0.278857 -0.338335 -0.019875 0.016387 -0.269166 -0.570854 0.019996 -0.351784 -0.2839 0.197355 0.094116 -0.313872 -0.076133 0.027074 0.012768 -0.134983 0.244344 -0.253433 0.397245 -0.20882 -0.288182 -0.360361 -0.050754 0.187656 -0.113824 -0.635655 -0.059229 -0.041629 0.393313 0.17092 0.048321 0.006761 -0.03119 -0.297112 -0.126988 0.756074 -0.286411 0.471366 0.518496 0.174466 -0.357473 -0.44759 -0.198465 -0.204227 0.219059 -0.503639 -0.02023 -0.046939 -0.160188 0.200995 -0.397404 0.101454 0.055279 0.274314 -0.095894 0.021339 0.19815 -0.192887 0.549968 -0.11743 -0.167186 -0.024394 0.06139 0.483349 0.457495 0.105286 -0.176052 -0.032138 0.060971 -0.205806 0.403868 -0.279866 -0.313464 0.322916 0.320364 -0.03197 0.223729 0.018236 0.232468 0.239822 -0.532175 -0.246494 0.509414 -0.478253 -0.793229 0.303132 0.146455 0.197756 -0.08877 -0.056146
object -0.170262 -0.063196 -0.276056 0.250017 -0.020771 -0.435958 -0.141602 0.015403 -0.281949 -0.368947 0.526458 -0.092131 -0.324104 -0.306941 0.158608 0.275375 0.318931 0.196402 -0.274226 -0.184867 0.284213 -0.11969 0.158556 0.187402 -0.221413 0.289792 -0.044424 -0.288552 -0.383344 -0.202701 -0.007628 0.194014 0.197297 -0.239788 0.084106 0.227841 -0.221871 0.085363 0.25686 0.110871 -0.061822 0.360174 -0.06581 0.154525 0.574834 0.120183 0.043054 0.059379 -0.033047 0.270604 0.293605 -0.1464 -0.107921 0.104624 0.017223 -0.056558 0.326641 -0.148785 -0.110597 -0.080926 -0.072879 -0.03225 0.211935 -0.115107 0.297871 -0.063576 0.103466 0.321293 -0.25118 0.284094 0.224343 0.439718 0.066352 -0.049064 -0.06993 -0.287132 0.01499 -0.248225 -0.149899 0.119991 -0.054598 0.079088 0.158042 -0.402652 0.053513 -0.039288 0.040152 0.033841 -0.003841 -0.303659 0.214953 -0.301251 0.212212 0.396465 0.477422 0.05255 -0.098717 -0.338954 0.108459 0.072239 -0.032863 0.27667 0.06064 0.236078 0.033369 0.090017 -0.207258 0.30215 -0.172379 0.040198 0.034061 0.155584 0.055425 -0.009905 -0.924035 -0.039258 0.377557 -0.006516 -0.303371 -0.186663 0.090883 -0.007168 -0.291272 0.129892 -0.354062 0.012749 0.215044 -0.190092 0.13257 -0.012701 0.14184 -0.029301 -0.184263 -0.153117 0.098004 -0.223889 0.041424 -0.025262 0.268731 -0.215542 0.272686 -0.263033 -0.070302 0.467222 -0.135015 -0.212275 -0.191935 0.321927 -0.065144 -0.011471 0.072184 -0.154055 0.157585 0.126717 0.127327 -0.014819 -0.215521 0.006406 -0.112551 0.212436 -0.183899 0.149247 -0.463121 0.302497 0.126383 -0.205074 0.410605 0.050878 0.180384 -0.222933 -0.017809 -0.063188 -0.299111 -0.350289 -0.263608 0.040796 -0.235766 -0.113933 -0.593612 -0.040177 0.366795 0.218119 0.153488 0.18239 0.435189 0.244542 0.092637 -0.230923 0.149993 0.298186 0.09548 -0.00104 0.024944 -0.282211 0.075881 -0.186377 0.076665 0.099989 -0.343386 -0.099107
attitude -0.34079 -0.391325 -0.318503 0.106135 -0.508599 0.11212 -0.234197 0.10409 -0.468533 -0.059552 0.306496 -0.157532 0.022202 -0.046628 -0.187128 0.201088 -0.03506 0.110449 0.158413 -0.070927 -0.058617 0.588647 0.01791 -0.251808 -0.011156 0.397355 -0.326033 -0.044588 -0.018702 -0.280636 0.245046 0.247456 0.334145 0.102187 0.50287 0.014806 -0.457382 -0.20597 -0.146464 0.239501 -0.053853 0.249362 -0.117157 0.22056 0.356814 0.38806 -0.169044 0.297912 0.026603 -0.096403 0.119577 0.002998 0.035456 0.291391 -0.133346 0.11203 -0.023561 0.166788 0.083048 -0.093241 0.02872 -0.068212 -0.088517 -0.234487 0.276556 -0.03391 0.014346 0.317326 -0.106648 0.007683 0.07897 -0.036922 0.044236 -0.010698 0.154838 0.131337 -0.583513 -0.24009 0.196584 0.352039 0.12818 0.001132 0.261293 0.233246 0.30378 -0.124505 -0.382357 -0.033186 0.165797 0.07797 -0.226982 0.25764 0.274135 0.368233 0.288065 0.72439 -0.190973 0.31686 -0.175318 0.194096 -0.191211 -0.00936 0.240986 0.073821 0.258237 -0.157978 0.43407 0.408459 -0.274514 0.099885 0.14775 0.013331 -0.019343 0.17584 -0.658829 0.164152 -0.205656 0.203385 0.031977 -0.004932 0.450106 0.199805 -0.446664 0.021685 -0.123899 0.025772 0.140152 -0.084622 0.492356 -0.25973 -0.026799 -0.17858 -0.028448 0.084384 0.313467 -0.485275 -0.257968 0.034408 -0.06506 0.005345 -0.180442 0.225319 0.184761 0.099902 0.27034 -0.158094 0.225757 0.23891 -0.158693 0.018513 -0.080081 -0.21344 0.061182 0.254431 0.095127 0.537192 -0.39425 -0.067446 -0.299116 0.343715 -0.060597 0.481876 0.641811 0.118054 0.253922 -0.127481 0.239615 0.072618 -0.156116 -0.201089 -0.001976 -0.043656 -0.121288 0.194616 -0.111279 0.001592 -0.511914 -0.418472 0.058584 0.033924 0.148749 0.292902 0.078453 0.212701 0.364618 0.614043 0.330535 0.123296 0.088627 0.305266 0.038663 0.157436 0.446506 -0.019757 -0.11543 -0.135289 -0.321004 -0.361112 -0.100623 -0.207875
treatment -0.311916 -0.412605 -0.326983 0.170049 -0.36573 -0.233814 -0.363504 0.178729 -0.207979 0.416951 0.384451 0.01469 -0.085651 -0.19879 0.91129 0.188466 -0.038654 -0.135651 -0.116614 0.067603 0.008448 -0.007957 -0.318991 0.047505 -0.21714 0.755348 -0.146673 0.127672 -0.213799 0.041641 -0.004839 0.080098 -0.166461 -0.561983 0.29055 -0.102667 0.06634 0.506274 -0.074439 0.229967 -0.022201 -0.175041 -0.325058 0.251729 0.236796 -0.00528 -0.078935 0.037898 -0.122924 -0.033121 -0.148146 0.058291 -0.261686 0.130989 -0.051678 -0.229995 0.217392 -0.425225 -0.064937 -0.055171 0.19845 -0.27133 -0.120419 -0.012335 -0.090151 -0.070972 -0.014524 0.117065 -0.18713 -0.135334 0.172281 0.230638 0.478733 -0.107821 -0.264292 0.038271 -0.216923 -0.129179 0.406357 0.248116 0.250829 -0.307383 -0.207337 0.460964 -0.255249 -0.093723 -0.126679 -0.111747 0.329773 0.117635 0.080053 0.261596 0.46247 0.151053 -0.212838 -0.260726 0.276075 0.055827 0.202187 0.222551 0.216706 -0.182242 -0.462559 0.104007 0.435126 -0.041994 0.187062 -0.057197 0.060076 0.094168 0.086349 -0.045077 -0.194168 0.168348 -0.119228 0.158796 -0.405654 -0.074035 -0.112937 -0.098987 0.013043 0.017649 0.165082 -0.228938 0.274314 0.140063 0.07697 0.156617 0.457796 -0.180468 0.029292 0.169455 -0.042527 0.222346 0.163998 -0.349856 0.075557 -0.049209 0.109353 -0.015563 -0.409269 0.034109 -0.314749 0.313882 0.60759 0.206595 -0.15928 0.439322 -0.218115 0.291141 -0.018188 -0.557597 -0.338877 0.203757 -0.131082 -0.209917 -0.181335 0.054766 -0.003191 0.230154 -0.163821 0.257274 0.448077 0.180588 0.638536 0.483447 0.120392 -0.248033 0.149942 -0.072281 0.187694 0.358724 0.437532 -0.002619 0.096972 -0.291333 -0.171157 -0.548723 0.438062 0.129221 -0.260613 -0.264382 -0.018193 -0.127295 0.085823 -0.011258 -0.214903 0.574346 0.084438 0.047402 0.269556 -0.03638 0.454832 -0.158831 -0.156654 -0.117 -0.278608 -0.051226 0.243082 0.13399
flight -0.125723 0.100636 0.019714 -0.395746 -0.214131 0.182519 -0.209929 -0.38594 -0.095465 0.007147 0.225163 0.478781 0.055758 0.086004 0.048831 0.585577 0.440951 -0.262982 -0.419396 0.378955 -0.218213 -0.597445 -0.084899 0.145016 -0.276289 0.6066 0.148641 -0.153674 -0.182017 -0.045867 0.080004 0.118211 -0.19516 -0.229778 0.873773 -0.122908 0.073587 -0.165173 -0.31998 0.157132 -0.186091 -0.119669 -0.482805 0.493009 0.12126 -0.047944 -0.261043 -0.301698 -0.408292 0.540062 0.131127 -0.123898 0.481197 -0.015843 -0.266608 -0.101855 0.279784 -0.149443 0.040179 0.069652 0.431167 0.558681 0.397663 0.036222 0.285928 -0.058272 0.106024 0.244042 -0.280576 0.030179 -0.251058 0.472676 0.015632 0.479904 -0.421127 -0.046814 -0.372756 0.078206 0.075361 0.721453 0.010905 0.202375 -0.160822 -0.212442 0.230187 -0.064206 -0.159768 -0.297356 0.201287 0.311633 0.002746 0.315425 -0.012378 -0.113919 0.314382 0.030886 0.047482 -0.261068 -0.512056 0.098834 -0.13259 0.336968 0.335421 0.308533 0.117519 0.111111 0.02715 -0.02131 0.715153 -0.039107 -0.00647 0.280117 -0.083081 -0.097646 -0.443541 -0.082898 -0.077006 0.024102 -0.016814 -0.451832 -0.096479 0.077189 0.086333 0.094785 0.227393 -0.032958 0.452946 -0.582298 -0.334647 -0.277695 -0.210571 -0.226214 0.282107 -0.225244 0.172812 -0.208598 0.249196 -0.0367 0.613789 0.136134 0.157562 0.12218 0.026144 0.172808 0.09578 0.058583 0.119307 0.291824 0.302068 0.332615 -0.433928 -0.088365 -0.054298 -0.07108 0.104741 0.055791 -0.112722 0.205351 -0.147005 -0.194789 0.14915 0.417698 -0.122367 0.370625 -0.056123 -0.290511 0.524651 -0.100657 -0.265281 -0.096661 -0.426185 -0.380089 -0.467068 -0.087367 0.393701 -0.338368 -0.57419 -0.173642 -0.379709 -0.708543 -0.39741 -0.005495 -0.144883 -0.446447 0.044309 0.181661 -0.094862 0.430556 -0.060717 -0.007518 -0.228722 -0.220488 0.153591 -0.312452 -0.633222 0.025525 0.162152 -0.171862 -0.194043 0.322713
forest -0.176125 -0.300326 0.503821 -0.088729 0.035599 -0.472412 -0.299368 -0.637482 -0.382758 -0.287808 0.272721 0.37159 -0.022322 0.146262 0.214085 0.077821 0.133468 -0.162399 -0.076662 0.140824 -0.223936 -0.318545 0.042346 0.22556 -0.383177 0.468999 -0.42049 -0.113819 -0.072942 -0.060923 -0.239306 -0.331036 -0.016875 -0.19605 -0.088686 0.374539 0.185012 -0.33619 0.192371 -0.366624 -0.427549 0.117207 -0.131437 0.028818 0.128974 0.319158 -0.194724 0.022899 -0.103255 0.427875 0.392221 -0.142503 -0.006718 0.589826 -0.242587 -0.190991 0.043016 0.038165 -0.257281 -0.626395 0.110093 -0.134235 0.17576 -0.053801 0.074427 -0.394825 -0.113062 0.434328 0.027478 0.306115 0.123612 0.063343 0.251567 0.537861 -0.243396 -0.583415 -0.042911 -0.152566 -0.176503 0.024356 0.137394 -0.024617 -0.06015 0.181977 0.474218 0.074272 -0.384057 -0.311725 0.071708 -0.419199 -0.217216 0.281995 0.120227 0.332681 0.164393 -0.320359 -0.02548 0.178355 -0.043858 -0.13608 -0.210964 0.142256 -0.261842 -0.464233 0.357804 -0.282213 -0.226132 -0.045391 0.030843 -0.066887 -0.123511 0.033004 0.032955 0.26047 -0.16125 -0.160959 -0.018889 -0.017003 0.183105 -0.304307 -0.15386 -0.090013 0.260259 -0.058212 -0.543128 0.330676 0.439321 0.037522 0.174922 -0.372682 -0.307079 -0.239712 -0.194815 0.094185 -0.325019 -0.136502 -0.17113 -0.781766 0.442557 0.521866 0.130442 0.149214 -0.38639 0.725463 0.075383 0.110362 0.178446 0.368354 0.52434 -0.114316 0.470004 -0.330964 -0.283979 0.290021 0.262727 -0.262641 0.238627 0.10525 0.177094 0.208813 0.080615 0.289899 -0.097931 -0.071797 -0.164056 -0.220658 0.048324 0.487627 0.325074 0.502191 -0.311065 -0.072826 -0.172749 0.004228 0.124284 -0.070483 0.03521 0.091027 0.066297 0.170386 0.308186 -0.01854 0.159749 0.534996 -0.150433 -0.054413 0.407166 0.160356 0.044622 0.212763 -0.29262 -0.428998 0.250721 -0.067989 -0.101616 -0.281464 0.094678 0.198374 -0.438324 -0.11447
abuse -0.183022 -0.183398 -0.085216 0.681499 0.02987 -0.229145 -0.646518 0.118724 -0.170841 -0.181445 0.222684 0.185547 0.080692 -0.2456 0.688401 -0.340489 -0.003513 0.384639 0.155792 -0.215662 0.007348 -0.002437 -0.02755 -0.163445 -0.45214 0.505982 0.519953 0.094623 -0.066789 -0.00958 0.205408 0.372709 -0.129386 -0.301212 0.220001 -0.227591 -0.364778 0.136858 -0.20626 0.556386 0.17129 -0.350348 -0.313568 0.074844 0.402917 -0.188329 -0.023428 0.214394 0.027721 0.471191 -0.156117 0.385921 -0.364947 0.150283 0.222903 -0.151709 0.275336 0.332021 -0.029187 -0.035509 -0.078298 -0.196358 0.429389 -0.252211 -0.265503 0.218256 -0.063486 0.059121 0.319182 0.172291 0.132707 0.206825 -0.122038 0.147585 -0.072375 0.032462 -0.383067 -0.172153 0.596407 0.251067 0.341973 -0.180791 0.092298 0.09976 -0.045462 -0.055538 0.067654 -0.067826 0.577104 -0.03245 0.085765 -0.165704 0.012937 0.549556 -0.027215 0.200829 -0.084165 0.333879 -0.036625 -0.001645 -0.187547 0.274757 0.073732 0.280787 0.276361 -0.191567 -0.107896 -0.247225 -0.300434 0.138681 0.050659 0.033555 -0.547594 0.463181 -0.013944 0.053712 0.07556 0.015335 -0.085671 -0.373298 -0.302462 0.159609 -0.102622 -0.420113 -0.008364 -0.148909 0.431432 0.106765 0.25801 0.039924 0.472997 -0.110731 0.363275 -0.160153 -0.048786 -0.366316 -0.18227 -0.316155 -0.207184 0.257045 0.135528 0.045758 -0.281194 0.556829 0.887984 0.346296 -0.135547 0.706147 -0.231585 0.373214 0.223849 -0.040546 0.052318 0.033614 -0.410039 -0.206373 0.215656 -0.044049 -0.511666 -0.187672 -0.30275 0.715309 -0.025324 0.092939 0.28434 0.011196 0.214088 -0.366535 0.327826 0.482116 0.02225 0.008399 0.378921 0.447995 0.181108 -0.02119 0.052202 -0.305869 -0.172543 0.236471 0.249561 0.168028 0.203556 0.355726 0.510381 -0.150819 -0.105419 -0.246975 0.17737 0.105058 0.219762 -0.412156 0.141502 -0.963214 -0.183951 0.351775 -0.656698 -0.32326 -0.023171 -0.211004
criterion -0.398294 -0.171828 -0.467646 0.207489 -0.005905 -0.274115 0.244168 3.49E-4 -0.572012 0.253721 -0.102626 -0.104442 0.484062 -0.223109 -0.273548 0.568672 -0.342237 0.04435 -0.110859 -0.131407 -0.152542 0.15671 -0.224484 0.196829 0.10908 0.616278 -0.291748 -0.441177 0.154261 -0.118453 0.335878 -0.357488 -0.025932 -0.527238 0.365513 -0.003274 0.076698 -0.15048 0.159989 -0.00954 0.380633 0.016208 -0.143343 -0.071852 -0.024221 0.267873 0.133643 -0.042337 0.311336 0.204517 0.043392 -0.006933 -0.167024 0.617724 -0.063082 0.154289 0.309436 -0.15096 0.123644 -0.030486 0.023255 -0.141486 0.31132 0.089199 -0.177785 -0.027058 -0.029378 -0.068798 -0.242768 -0.137253 0.047656 0.07904 0.11517 0.109968 0.125565 0.063002 -0.154429 -0.415518 -0.120258 -0.03245 0.108643 -0.231282 -0.187528 0.118701 -0.064823 0.067351 -0.206181 -0.259075 0.320524 -0.142721 0.147564 0.024646 -0.00501 0.086593 0.098646 0.046639 0.003216 0.153781 0.169622 0.024552 0.077101 0.44542 -0.337832 0.035137 0.233438 0.177432 0.081364 0.313793 -0.293865 -0.325988 -0.16687 0.087838 0.011699 -0.41736 -0.315736 -0.230947 0.085447 -0.069718 -0.12167 0.466837 0.088842 -0.100925 0.277051 0.336043 0.406865 0.330421 0.073371 -0.369618 0.199607 -0.365146 0.057025 0.058217 0.022892 0.172542 0.360444 0.109261 -0.132162 -0.111631 0.097789 -0.216239 0.338903 -0.560928 -0.450631 0.454337 0.41286 -0.186768 0.33852 0.031981 -0.254403 0.289181 -0.067033 0.005413 -0.568709 0.243619 0.161488 0.259566 -0.199987 0.212161 -0.0212 0.053966 -0.330079 0.0235 -0.184012 0.205385 0.370707 -0.170988 0.549384 -0.088361 0.184161 -0.405699 0.361975 0.178724 -0.140151 -0.031833 0.090722 0.153423 -0.591709 -0.488734 -0.329787 -0.445317 0.212137 -0.028879 0.099509 0.589287 0.227332 -0.191049 0.133927 0.642196 0.233593 0.07395 0.199658 0.050052 0.281778 -0.107602 -0.174797 0.150783 -0.046568 0.408795 -0.056356 0.043828
sea -0.087545 -0.312856 0.179808 0.038303 -0.008245 -0.241497 0.309635 -0.548156 -0.316086 -0.505055 -0.226949 0.40377 -0.315835 -0.280818 -0.139573 -0.015813 0.427662 -0.120628 -0.18138 0.202842 -0.056249 0.023359 -0.175884 0.290713 -0.490969 0.368889 -0.330407 -0.012987 -0.215421 0.205544 0.034497 -0.353017 0.334424 -0.01999 0.256602 0.280534 0.251115 -0.195703 0.124178 -0.220909 -0.273304 6.18E-4 -0.311173 0.18745 0.045671 0.131967 -0.21721 -0.253862 -0.296669 0.012476 0.192786 0.198604 -0.102232 0.035672 -0.428731 0.24219 0.269011 0.108073 -0.393065 -0.087626 0.257772 -0.071711 0.113773 -0.278285 -0.210076 -0.299125 0.065377 0.365375 0.01371 0.094288 0.062704 0.02013 0.478925 0.2694 -0.530732 -0.521389 0.05967 -0.716354 -0.06112 0.312615 -0.223729 -0.112005 -0.363081 0.32749 -0.095026 0.087911 -0.033763 -0.032863 0.043039 -0.320193 -0.032172 0.071864 0.434402 0.192823 0.033974 0.129938 -0.219017 0.050016 -0.28825 0.209402 -0.018528 -0.258101 0.22498 0.130836 -0.183312 -0.183463 -8.57E-4 0.144495 0.42172 0.222508 0.274702 0.606574 -0.095951 -0.115435 -0.439487 -0.011885 0.082921 0.08667 -0.033533 -0.410064 -0.106046 0.094166 -0.069952 -0.032707 -0.072896 0.185369 0.238412 0.068468 0.520672 0.003112 -0.127081 -0.386329 -0.020146 -0.253232 0.108996 0.122446 0.041292 -0.542953 0.046287 0.286268 0.337149 0.24057 -0.23194 0.68207 -0.090362 0.174968 -0.331726 0.223827 0.223553 0.497951 0.034492 -0.463761 -0.106295 0.275405 0.018042 -0.296305 -0.186397 0.12474 0.006144 0.472279 -0.074312 0.02649 -0.044938 0.546101 -0.176194 0.39513 0.060571 0.52689 0.479393 0.1153 -0.099199 -0.300591 -0.703921 0.005572 0.456611 -0.333686 -0.319617 0.025283 -0.223247 0.294382 0.191535 0.205668 -0.072856 0.196557 -0.536231 0.684471 0.49449 0.067842 0.003552 0.209354 -0.485763 -0.246688 0.268701 -0.317418 -0.09924 0.024804 -0.010911 0.569101 -0.031093 -0.43144
dollar 0.178365 -0.14841 -0.656855 -0.01204 0.511991 -0.338177 -0.602761 -0.651356 0.531218 -0.362959 0.047215 -0.005742 -0.439154 -0.180738 -0.073911 0.249458 -0.094061 0.00161 -0.029367 0.01594 -0.273232 -0.121761 -0.456093 -0.074958 -0.494628 -0.161727 0.126962 0.497263 -0.370958 0.23257 0.19984 -0.600875 0.396917 0.365048 0.533625 0.098235 -0.120887 0.264973 0.205634 -0.304697 -0.343012 0.385846 -0.170555 -0.19696 0.292211 -0.208271 0.412959 -0.331831 -0.341729 0.012256 0.1692 -0.278026 0.199059 0.462879 0.015309 0.083593 0.431668 0.526478 -0.029089 -0.224902 -0.115134 0.398993 -0.343919 -0.170942 0.315019 0.242412 -0.29383 0.224909 -0.144295 0.359312 0.499873 -0.060656 0.367058 0.079696 -0.045294 0.052219 -0.30724 -0.268357 -0.107808 -0.127534 0.097113 -0.300457 -0.196742 0.455069 0.246862 0.996153 -0.201249 -0.142054 0.331309 -0.27256 0.129321 -0.253158 0.265581 0.061967 -0.025721 -0.173053 -0.275113 -0.503301 -0.035904 0.625238 -0.283276 -0.51021 0.156758 0.345386 0.347579 0.28169 -0.180174 0.129617 -0.220432 -0.02668 -0.056076 -0.056264 -0.219479 -0.395915 -0.785406 -0.35286 0.254174 0.160101 -0.180492 0.238179 -0.249162 0.725647 0.385304 -0.316786 0.194823 0.011037 0.41477 -0.111928 -0.36273 -0.295179 -0.204688 -0.369452 -0.254322 0.010474 0.117253 -0.125082 -0.189241 0.174555 -0.575121 0.030793 0.625372 -0.315506 -0.448375 0.26418 0.041637 0.023523 -0.148616 0.268136 0.21502 0.023959 -0.239877 -0.843527 0.337242 -0.150808 -0.023164 -0.168806 -0.474022 -0.564751 -0.497964 0.506219 0.054366 0.138274 0.195244 0.38007 -0.035319 -0.228233 0.109884 -0.133799 -0.159619 0.222288 0.171106 -0.749579 -0.30706 0.271566 -0.187266 -0.039587 0.195559 -0.457977 0.184492 0.04539 0.394409 -0.033665 -0.171167 0.295848 -0.317628 -0.189567 0.257712 0.475649 0.073891 -0.791501 -0.119443 0.387001 -0.154187 -0.085648 -0.492038 0.087716 -0.312875 0.098059 -0.497422 -0.269161
example -0.363263 0.172725 -0.065254 0.352745 0.020989 -0.113404 -0.218045 0.106643 0.073085 0.172753 -0.03718 0.014473 0.246022 -0.302175 0.1094 0.371044 -0.296392 0.439077 -0.246624 -0.087 -0.432915 -0.076617 0.209565 0.333006 0.046608 0.546473 -0.075389 -0.109425 -0.117094 -0.316765 -0.248293 0.068618 0.060042 -0.523355 -0.080526 -0.082444 -0.33011 0.057639 -0.159751 -0.262748 0.290244 0.406791 -0.117086 -0.448108 0.304779 0.299602 -0.153771 -0.24782 -0.161872 0.031689 -0.043943 -0.254194 -0.122093 0.347183 0.042876 -0.097219 -0.005165 -0.170053 -0.088296 0.128622 -0.239488 -0.264789 -0.076156 -0.040329 -0.074978 0.013241 0.222659 -0.057393 -0.243773 -0.168512 0.121142 -0.134856 0.277779 0.216772 -0.112821 -0.091384 0.031613 -0.196304 0.016473 0.22681 0.05715 -0.033434 0.017162 0.373183 0.1715 0.1238 -0.186108 -0.072666 0.153466 -0.029462 -0.04395 0.259401 0.244115 0.247485 0.02891 0.11655 0.161053 0.208519 0.105383 0.034699 -0.057973 -0.008136 0.014069 0.074209 -0.247209 -0.129035 0.403397 -0.024417 -0.018087 0.038473 0.191284 0.07019 -0.158621 -0.120972 -0.466263 -0.108902 -0.185653 -0.23287 -0.3483 -0.242776 0.152022 0.457806 -0.198786 -0.27542 -0.143417 -0.098706 -0.005888 -0.17494 0.115316 -0.096917 -0.248318 -0.061235 -0.49332 -0.015011 0.320396 -0.049231 -0.303313 -0.179422 0.42442 -0.152799 -0.082356 -0.278126 -0.182596 -0.012111 0.085577 -0.013446 -0.107166 -0.080524 -0.004519 -0.149981 0.0796 0.212997 -0.545535 0.018347 0.199969 -0.050394 -0.098505 0.165408 -0.340981 0.193269 -0.020705 0.286334 0.074177 0.024232 0.043806 -0.330362 0.469606 0.103711 0.081993 -0.237882 -0.11107 -0.149214 0.245732 0.225228 0.120521 -0.176859 -0.093474 -0.288451 -0.230773 -0.504485 0.130411 0.01026 0.045968 -0.048193 -0.007591 -0.238728 -0.034898 0.221901 -0.237307 0.203254 0.090571 -0.094698 0.238632 -0.017789 -0.093293 0.157945 -0.118132 0.068625 0.019026 0.02227
journal -0.515132 -0.536161 0.113408 0.231929 0.163558 -0.53564 0.010079 0.042095 -0.428726 0.020676 0.545319 -0.263138 -0.294723 -0.663117 0.303541 -0.895717 0.670168 0.541612 -0.022313 -0.360378 0.046136 0.523507 -0.367089 0.756834 -0.465359 0.138557 -0.419324 -0.265817 -0.671484 0.128344 -0.162006 -0.251508 -0.355603 0.121847 0.441401 -0.279941 -0.195089 0.213151 0.111856 0.2277 0.590787 -0.319835 -0.126544 -0.069955 0.052255 -0.025548 0.048004 0.621181 0.270263 0.437009 -0.154909 0.518679 -0.487636 0.714056 -0.253191 0.191487 0.635275 0.244256 0.714727 -0.041715 -0.662461 0.166406 -0.162337 -0.344558 0.158479 0.404722 -0.011718 0.151635 -0.723862 -0.765284 0.085024 0.407233 -0.057059 -0.110141 -0.480749 0.079137 -0.124559 -0.320755 -0.603193 0.464384 -0.110457 0.238131 0.091916 1.095447 0.267989 0.422375 -0.723979 0.027245 0.476911 0.26435 0.175733 -0.036014 0.119211 0.171696 -0.575913 0.656487 -0.201674 -0.139899 0.205693 0.045278 0.119962 0.092952 -0.514414 0.356137 -0.606273 -0.395675 0.554774 -0.349551 0.247398 0.43758 0.033629 -0.261589 0.524107 0.11662 0.238204 0.332082 -0.018201 -0.230366 -7.44E-4 -0.283226 0.352804 0.221392 0.489374 0.161214 -0.049189 0.272907 -0.206577 0.424175 0.304359 -0.500474 -0.130574 0.543887 0.108523 0.007348 0.011443 0.161322 0.478912 -0.530185 0.431757 -0.736589 0.204425 0.248822 -0.743298 0.398603 -0.13578 0.177781 -0.276708 0.049828 -0.388417 0.297071 -0.166589 -0.577417 -0.614925 -0.69169 -0.133523 -0.140025 -0.045534 -0.044816 -0.59923 -0.211692 0.182225 0.521575 -0.269809 0.281722 -0.049467 -0.209318 0.570487 0.638378 0.340081 0.504689 -0.264047 0.397991 0.189446 -0.16498 0.330585 -0.227033 -0.048892 -0.095517 -0.384875 -0.423254 0.169575 -0.156435 -0.094644 -0.252419 -0.083356 0.337511 0.621426 0.712827 -0.230136 0.240852 0.314624 0.51464 -0.187174 -0.044224 0.27784 -0.19881 0.556763 -0.121788 -0.19819 0.172076
laundering -0.011949 -0.092187 0.329684 0.349797 -0.067293 0.249141 -0.355695 -0.228303 0.155501 -0.116659 0.036914 0.087219 0.009049 -0.37258 0.401451 -0.325215 -0.146028 -9.18E-4 0.467241 -0.388815 -0.605029 -0.203694 -0.081643 -0.035616 -0.596577 0.053076 0.226431 -0.050395 -0.127156 0.240671 -0.077682 0.638817 -0.015552 -0.510983 0.091474 -0.237145 -0.209729 0.264712 -0.017892 0.325808 0.107461 -0.323652 0.159958 -0.02136 -0.026406 0.206208 0.132073 -0.028936 -0.298339 0.692513 -0.09895 -0.02307 -0.661377 0.587867 -0.130566 -0.181414 0.579567 0.628049 -0.056923 -0.046117 0.536079 0.487646 0.591574 -0.319228 -0.381165 0.653536 -0.027718 -0.136561 -0.435847 0.504988 0.202501 0.221207 -0.395435 0.299329 0.174923 0.256942 -0.573975 -0.391461 0.190715 0.416395 0.821392 0.166822 -0.222509 0.086621 0.097546 0.356142 0.215393 -0.262986 0.329411 -0.119664 -0.240465 -0.395175 0.430064 0.04432 -0.13287 -0.204669 0.20538 0.084706 -0.309614 0.744818 -0.031944 0.089277 0.004686 0.500068 0.175441 0.17676 -0.031827 0.050192 0.265216 -0.09641 0.352786 0.113084 -0.349957 0.838473 -0.027882 -0.028796 0.61214 0.19998 -0.304598 0.329402 -0.073859 0.244779 -0.074486 0.259256 0.054578 0.983532 -0.303083 0.094413 0.021648 0.098011 -0.184005 -0.377604 -0.433503 0.157321 0.127987 -0.5083 -0.007879 -0.267005 -0.606582 0.292913 0.115757 0.097273 -0.372341 0.460353 0.519577 0.524458 0.237904 -0.204946 -0.277658 0.175936 -0.193442 0.126382 0.352674 -0.040612 -0.967868 -0.35266 0.166205 0.144774 -0.593812 -0.123257 -0.111167 0.347916 -0.224371 -0.034348 0.160602 -0.253872 -0.062207 -0.209303 0.626579 0.117232 -0.257718 -0.295223 0.386587 0.21161 0.476761 -0.444223 -0.206442 -0.337887 -0.006205 -0.007907 0.237515 0.158252 0.096779 -0.409461 0.03417 -0.296338 0.912295 0.325181 0.440245 -0.28184 -0.672784 -0.153552 0.241391 0.294979 -0.594454 -0.173193 -0.778082 -0.499915 0.15476 -0.074448
hotel 0.131803 -0.085026 0.131191 -0.161946 -0.219079 -0.360821 -0.010855 -0.088746 -0.039346 0.139327 0.274096 0.208244 0.064593 -0.381703 0.008112 0.077822 -0.27176 0.095875 0.244238 0.210222 -0.390961 -0.142903 0.397228 0.163448 0.182932 0.059697 -0.279324 0.024279 -0.531534 0.318096 -0.057467 -0.051974 0.037398 -0.026804 0.360219 0.419058 -0.100801 0.025359 -0.128487 -0.24115 -0.216633 -0.264858 0.196858 0.222025 -0.098797 0.054043 -0.30599 0.181597 -0.227772 0.323173 0.127359 -0.106579 0.274572 0.159762 -0.369301 -0.05408 0.268924 -0.372524 0.098773 -0.196496 0.358131 0.143429 -0.299797 -0.084385 0.050358 -0.126753 -0.363885 0.03154 -0.245472 0.23497 -0.141459 0.210147 -0.023343 0.268629 -0.272409 -0.082059 -0.114943 0.10002 0.279274 0.180937 0.074733 0.002536 -0.103333 0.088666 0.048514 -0.103384 -0.288772 -0.37801 -0.296772 0.21849 -0.165662 0.459367 0.306791 -0.090092 0.433703 -0.185753 -0.599708 0.002153 -0.030155 0.494831 -0.499963 0.124815 0.055663 -0.274802 0.413572 -0.283776 0.056447 -0.214284 0.376455 0.148827 0.274105 -0.079118 -0.42295 0.089224 -0.241975 -0.123664 0.191999 -0.093469 -0.265948 -0.126408 -0.394929 -0.07269 0.148141 -0.437052 -0.059448 8.66E-4 0.232461 -0.318029 0.395565 -0.330923 0.005657 -0.160378 0.078016 0.03085 0.200405 -0.263812 0.120162 0.140057 0.318294 -0.120114 0.162774 -0.497452 0.499927 0.131282 0.045341 -0.14945 -0.084234 0.259263 0.045046 0.524361 -0.404779 -0.181637 0.150645 -0.210609 -0.322535 -0.444653 0.230036 0.049954 0.103725 0.445545 -0.013831 0.332413 -0.104709 0.428013 0.004528 0.023394 0.022097 0.151753 -0.021338 0.045097 0.103745 -0.221273 -0.1903 0.131824 0.269632 0.234533 -0.483462 -0.606162 -0.177042 -0.45981 -0.083819 -0.155814 0.262323 -0.262516 -0.16746 0.198024 0.624367 0.320262 0.132314 -0.03608 -0.412035 -0.170963 0.272268 0.023022 -0.174657 -0.300437 0.203147 0.5469 -0.352488 0.307041
term -0.319952 -0.311303 -0.10098 0.191475 0.189925 -0.362696 -0.305099 -0.021745 0.222491 0.194966 -0.320942 0.320342 0.143709 -0.185577 0.038699 0.095336 -0.092942 0.238493 0.192522 0.538681 -0.127384 -0.157776 -0.685539 0.124758 0.058647 0.309752 0.159555 -0.188527 -0.049877 0.381592 0.142232 0.228144 0.018534 -0.361978 0.172466 -0.015619 0.017176 0.047014 0.270393 0.171134 -0.05232 0.355223 -0.008858 0.230412 -0.219059 0.317873 0.220339 0.004184 -0.154167 0.171377 0.143244 -0.308111 -0.005831 0.66024 0.246035 -0.5098 0.256843 -0.252693 0.446019 -0.36934 0.361203 0.217608 0.435218 0.178906 0.476309 -0.027021 0.33648 -0.340806 0.063304 0.175136 -0.144842 -0.021688 -0.007991 -0.194881 0.020881 -0.103654 0.003089 0.1043 0.210665 0.028208 0.203842 -0.192457 -0.223616 0.576276 -0.57823 -0.038115 0.326603 0.28582 0.443097 -0.040483 0.20441 0.325141 0.191078 0.039648 -0.268394 -0.043476 0.606304 -0.354142 -0.04725 -0.296343 -0.132821 0.501064 -0.068657 0.390251 -0.125813 0.179623 0.134713 0.268263 -0.113519 0.071174 -0.012057 -0.568978 -0.044406 0.056224 -0.817041 -0.001529 -0.160708 0.119438 -0.211719 0.337067 -0.169659 -0.16722 0.463209 0.196494 0.017627 0.29305 -0.077387 0.035363 0.860661 -0.164951 0.245622 0.360374 -0.064136 -0.011636 0.139666 -0.154851 -0.128886 0.351424 -0.265595 -0.003112 -0.058684 -0.294603 -0.091627 0.145934 -0.050179 0.306817 -0.174631 0.38748 -0.733329 -0.083378 -0.069217 -0.14034 -0.006229 -0.240851 -0.180911 -0.200844 -0.295506 -0.142516 0.119197 0.336044 0.503037 0.234249 0.198462 -0.135712 0.140666 -0.317087 0.141433 -0.324606 0.208371 0.340013 0.090757 -0.170181 -0.363756 -0.019109 0.116882 0.057823 -0.143418 -0.181426 0.041426 0.106106 0.703947 -0.276197 0.526448 0.27295 0.399634 0.179371 0.270396 0.552535 -0.17166 -0.054526 0.206226 0.013281 0.180631 -0.129239 -0.254205 -0.039742 -0.331488 -0.015255 0.118045 0.082391
listing -0.215676 0.087134 0.210987 0.595698 -0.201555 -0.374053 0.106646 -0.307912 0.135399 0.123945 0.023986 0.679547 0.376385 -0.110602 -0.155662 0.192236 -0.073665 0.150842 0.08878 -0.324053 -0.071141 -0.401269 -0.499809 0.187905 0.205299 0.337931 0.050323 -0.11233 -0.138906 0.146458 0.378166 -0.120176 -0.174405 -0.264247 0.219291 0.061433 -0.009411 -0.049187 -0.638299 0.175086 0.282482 0.21339 -0.010196 -0.012818 0.102063 -0.243223 -0.032333 -0.417078 -0.031932 0.293365 0.139017 0.321874 0.048607 0.341909 0.098012 -0.113658 0.195535 -0.050526 0.203714 0.082772 0.380761 -0.207122 0.07627 -0.40036 0.289224 0.034536 -0.239092 0.006284 0.030863 0.310178 0.06022 0.140273 -0.091648 0.057004 -0.313542 -0.270413 -0.317996 -0.105494 -0.421182 -0.114604 0.06697 -0.034927 -0.061792 -0.034863 0.157978 0.047541 -0.125797 -0.11242 -0.124448 0.262375 0.085453 0.287444 0.38356 0.063479 -0.51261 -0.153629 0.058152 -0.174773 0.245292 0.260657 -0.115415 0.237024 0.097819 0.278942 0.190194 -0.426124 0.304651 -0.160464 -0.040194 -0.204942 -0.092368 -0.409027 0.003988 -0.077634 -0.456874 -0.118248 0.119361 -0.283789 -0.291181 0.169064 -0.105782 0.177668 0.262031 -0.002548 0.226843 -0.009775 0.409294 -0.471484 -0.193692 -0.031988 -0.033395 -0.155646 -0.216507 0.18044 -0.132752 0.118944 0.054373 -0.200532 0.491176 -0.054803 0.463778 0.219061 -0.273542 0.20823 0.609114 -0.083276 -0.009028 -0.004051 0.376191 0.286167 -0.349556 -0.016171 -0.125212 -0.023853 0.071233 -0.501055 -0.156188 0.224885 -0.082535 0.327984 -0.05347 0.312026 0.320409 0.107119 0.177468 -0.050976 0.44096 0.033875 0.281222 -0.481677 0.011469 -0.145859 0.130799 -0.127738 0.118413 0.086999 -0.262519 0.023332 -0.222966 0.03358 0.160124 -0.219013 -0.286803 0.048093 -0.14726 -0.448541 0.377201 0.644497 -0.013981 -0.178064 0.05433 0.224828 0.294702 -0.026302 0.221801 -0.178262 0.006923 0.171322 0.190623 0.54296
chemistry -0.435902 -0.338177 -0.166189 0.46255 -0.157168 -0.220865 0.179004 0.37546 -0.839778 0.344328 -0.202367 -0.483108 -0.374901 -0.447745 0.217511 -0.137506 0.520893 -0.265756 -0.02305 -0.470186 0.192136 -0.095509 0.058673 0.391591 -0.207988 0.068635 -0.008145 -0.134486 -0.165167 0.066444 -0.255275 0.247901 0.183175 0.192769 0.334419 -0.019082 0.147233 0.244479 0.106707 -0.260651 -0.395489 0.408296 -0.178902 0.189945 0.344196 0.13958 -0.331244 0.637012 -0.072979 -0.169309 0.11132 0.408979 0.106364 0.449563 0.009183 -0.087274 0.25851 -0.03576 -0.216668 -0.004302 0.090129 -0.089094 0.047132 -0.373756 0.556351 0.101775 -0.422602 -0.056831 -0.54326 0.294757 0.122719 0.173055 0.145667 0.315251 0.028136 -0.018485 0.025844 0.189828 -0.043646 -0.176672 0.472609 -0.098826 -0.379134 0.122274 0.217223 0.321019 -0.586643 -0.508972 0.175471 -0.07367 0.115628 0.264882 -0.122123 -0.112961 0.038454 0.488909 0.086343 0.375888 -0.353814 -0.471764 0.169122 0.096736 -0.133632 0.170385 0.030073 -0.41548 0.112501 0.192281 0.003208 0.385892 0.225587 0.036799 0.452376 -0.004449 -0.276462 -0.092775 0.182407 0.035494 0.063355 -0.019174 0.278171 -0.059881 0.096783 0.191329 -0.079241 0.19917 -0.328921 -0.400481 0.455313 -0.197008 -0.072464 -0.100412 -0.156435 0.128304 -0.013641 -0.085796 0.289156 -0.14575 0.253616 -0.256304 -0.035319 0.077248 -0.382967 0.267757 0.150412 0.264055 -0.057094 0.239792 -0.075488 -0.075138 -0.133102 -0.729737 -0.357356 0.201362 0.046009 0.051979 -0.268009 -0.078777 -0.350836 0.017344 0.001218 -0.239104 0.010479 -0.018717 0.129538 0.16692 0.075063 0.093593 0.462313 -0.333346 -0.08629 0.497673 -0.155531 0.067767 -0.414946 -0.373111 -0.383157 -0.231983 0.018102 -0.106262 0.218269 0.025996 0.337523 0.050773 0.299651 0.501044 0.212796 0.385787 -0.154164 0.252614 0.180989 -0.463006 0.083735 -0.39077 -0.467605 0.250149 0.326457 -0.203128 -0.046999 0.20637
seafood 0.027415 -0.174385 0.437999 -0.129018 -0.081046 -0.075192 -0.049111 0.232712 -0.418283 -0.409323 0.236841 -0.004526 0.34278 0.055181 0.140065 -0.347784 -0.512465 0.420144 -0.408468 -0.120983 -0.336633 -0.219455 -0.427452 0.378678 0.3704 0.46542 -0.115311 -0.321783 -0.208896 0.357666 -0.017625 -0.02289 0.307384 0.240696 0.173849 -0.044452 -0.144676 0.100404 0.018264 -0.200267 -0.566649 -0.229867 0.034142 -0.184368 0.039963 0.414458 -0.200731 -0.210487 -0.754486 -0.142577 0.293899 -0.166496 -0.168273 0.382615 -0.134768 0.052697 0.071934 -0.075289 -0.162471 -0.175917 0.035652 -0.046284 -0.3787 -0.213809 -0.154177 -0.02299 -0.20329 -0.303596 -0.387359 0.658975 -0.143037 0.410286 0.301948 0.012186 -0.122208 -0.27139 0.068644 -0.991677 -0.051565 0.613084 0.047504 0.216904 -0.259806 0.580527 0.491256 0.321194 -0.519136 -0.34248 0.094895 0.141971 0.134392 0.355722 0.465467 -0.17262 0.192972 0.100069 -0.30045 -0.004199 -0.139787 -0.057469 0.434932 -0.430512 0.441243 -0.295765 0.206456 -0.152616 -0.13982 0.004506 0.20917 -0.260396 0.530268 -0.330455 -0.133583 -0.127386 -0.163471 -0.360185 -0.202564 -0.106454 -0.237878 -0.084882 -0.181795 -0.2945 0.136788 -0.080438 0.072453 0.182339 0.283098 -0.488606 0.483497 0.161426 -0.30104 -0.816429 -0.106537 0.433161 0.218989 -0.376395 -0.060025 -0.150075 -0.021746 0.152091 0.252552 0.497203 0.066978 0.03847 0.088053 0.800223 -0.059249 0.30787 0.374149 0.21271 -0.677981 -0.620554 -0.425491 0.343186 -0.029179 -0.232901 -0.050859 -0.280597 0.033777 0.310863 -0.316016 -0.103615 0.178716 0.216011 -0.43514 0.103586 0.056376 -0.095375 0.17811 -0.231731 0.006951 -0.2397 -0.116117 0.278527 0.719118 0.14051 -0.455854 -0.155879 -0.109959 -0.181261 0.826287 -0.003686 -0.192462 0.280586 -0.067276 -0.006855 0.493011 0.232361 0.123831 0.229545 -0.30786 -0.092372 0.312606 -0.202952 -0.388633 0.247528 -0.134645 0.149299 -0.351017 -0.042095
CD -0.549661 -0.051166 -0.205182 0.336107 0.258368 -0.281409 -0.09784 -0.44875 -0.046039 -0.238072 0.072715 0.076971 -0.435397 0.063038 -0.089495 -0.241421 0.06211 0.10464 -0.473977 -0.522364 0.008089 0.06303 -0.089936 -0.072203 0.278022 -0.079328 -0.020122 -0.485832 -0.121992 -0.176053 0.027766 -0.30832 0.37685 0.390975 -0.048496 0.059443 -0.200698 0.429213 -0.029553 -0.554897 -0.018878 -0.11474 0.035869 -0.325637 -0.200066 0.087185 0.127545 -0.313522 0.122856 0.377201 -0.51692 -0.430019 -0.320452 0.685465 0.204198 0.191785 0.381857 0.038723 -0.010492 -0.274855 0.165446 0.451618 -0.307024 0.071261 0.030385 0.196795 -0.597626 -0.044366 -0.506195 0.16732 0.453387 -0.089329 -0.269337 0.57201 -0.219821 0.18607 0.126998 0.502615 0.47764 -0.035491 -0.007991 0.324761 -0.290894 0.53965 0.308001 -0.408199 -0.080548 -0.03108 0.312632 0.141212 0.358238 0.379571 0.108376 0.26162 0.228017 -0.016004 0.239782 -0.174394 0.300153 0.008463 -0.150628 -0.037078 -0.195665 0.237258 0.12528 -0.30369 0.208383 -0.01899 -0.501348 -0.264281 0.219077 -0.027466 -0.471454 0.298449 -0.212413 -0.420627 0.311678 0.221378 0.141684 -0.39528 0.121376 -0.335823 0.093739 0.406276 0.19186 -0.192689 0.367204 -0.178154 -0.083338 -0.629175 -0.780042 -0.319776 -0.080684 -0.072347 0.080888 -0.049534 0.273157 -0.149288 0.549875 -0.269456 0.409476 0.262127 -0.229547 0.477736 0.079969 0.127044 0.235713 0.704755 -0.286675 0.240098 0.051291 -0.03995 0.34427 -0.099668 -0.002568 -0.17763 -0.026606 -0.055646 -0.342622 0.161868 -0.233182 0.26054 0.318248 0.28394 0.152876 -0.80784 0.317271 -0.01414 -0.131128 -0.111102 0.154528 -0.26929 0.625386 -0.035082 0.135889 0.187625 0.017963 0.417136 0.012499 -0.181949 0.353758 -0.115607 -0.051076 0.008644 -0.135736 -0.011094 -0.090656 0.016054 -0.069614 -0.020689 -0.282677 -0.163128 0.306366 -0.123811 -0.100104 -0.434791 0.265831 0.201747 -0.057197 0.257925
mind -0.386675 -0.196938 0.076933 0.170561 -0.46365 -0.397118 0.02827 -0.093171 -0.248029 -0.141862 -0.023369 0.202751 0.192239 0.088378 -0.240154 -0.040408 0.142233 -0.123167 -0.215007 0.079982 -0.01512 0.068652 0.032782 0.119667 -0.055353 0.033977 -0.245191 -0.431319 -0.197527 0.084716 0.245709 -0.184638 0.175115 0.226837 0.132241 0.391283 -0.243236 0.055296 -0.288381 0.098508 -0.154096 0.190795 -0.248535 -0.119753 0.231805 0.160589 -0.092592 0.177444 0.006347 0.215802 -0.039189 -0.161685 0.361221 0.394277 0.003777 -0.346737 -0.065921 -0.084078 -0.187141 -0.196656 0.110185 -0.02686 0.140476 0.178346 0.34558 0.240407 0.093186 0.133582 -0.249356 0.267729 0.448361 0.086096 -0.237746 0.190952 0.257667 0.208303 -0.490402 -0.245894 -0.024691 0.39418 0.321697 -0.208439 -0.120864 0.276916 0.069361 -0.097864 -0.413171 0.188115 0.275254 0.159503 0.137944 0.047375 0.140023 0.28484 0.195865 0.18512 -0.296332 -0.28717 -0.06723 0.278148 -0.174675 -0.04688 0.063317 -0.023709 -0.109004 0.065162 0.443356 0.11744 1.59E-4 -0.010291 -0.219842 -0.190776 0.268675 0.057702 -0.288666 -0.133633 0.318013 -0.013666 -0.378649 0.313223 0.211962 0.147245 0.025454 0.212837 -0.168521 -0.294316 0.200603 -0.018319 0.511038 0.00338 0.041463 0.257662 -0.153462 -0.060065 0.367326 -0.379033 -0.036289 -0.141531 0.109737 -0.384015 0.055793 -0.121686 0.131976 0.390409 -0.014446 -0.350149 0.295678 0.160458 -0.100706 -0.146816 -0.296472 0.08485 0.015855 0.245319 -0.139664 0.333055 -0.564125 0.263303 -0.212514 -0.135322 -0.359987 -0.067261 -0.139116 0.279856 0.393004 -0.026163 0.193801 0.106936 0.521929 -0.108746 -0.390913 -0.009093 -0.024728 -0.037456 -0.240551 0.031325 -0.392475 -0.124209 0.10617 -5.19E-4 0.355904 0.147612 0.117489 0.437466 0.38217 0.729739 0.579389 0.166043 0.082274 0.376151 -0.151088 -0.352897 0.155387 -0.014907 0.26681 -0.26559 0.206337 -0.006879 -0.064203 0.132539
sex -0.384861 0.006834 -0.319356 0.367811 0.074136 -0.035591 -0.358465 -0.488069 -0.453364 0.239212 0.489065 0.112138 -0.225018 -0.104818 0.594763 -0.115765 -0.210432 0.169941 -0.102968 -0.424521 -0.151074 -0.095525 0.285068 -0.269514 -0.046248 0.83334 0.249971 0.22329 -0.276972 -0.004114 -0.063172 0.244633 -0.024097 0.374834 0.45775 -0.214784 0.157202 0.136417 -0.321756 0.319864 0.086441 -0.352242 0.108304 0.219647 0.226114 -0.014779 -0.483247 0.292998 -0.126716 0.179095 -0.295135 0.086873 0.002829 0.450898 -0.250298 -0.098828 -0.238594 0.090675 0.299738 0.323904 0.326283 -0.092264 0.32462 -0.549168 0.320414 0.252004 -0.567371 -0.067877 -0.319333 0.361241 0.32244 0.461378 -0.204437 -0.083954 0.233476 0.258632 -0.131332 -0.012901 0.532306 0.353917 0.519394 -0.001547 -0.106036 0.483457 -0.134225 -0.098189 -0.068323 -0.00419 0.259474 -9.7E-5 0.226093 0.295646 0.267634 0.230811 0.13702 0.141025 -0.639665 0.356467 -0.507006 0.212481 0.173919 -0.125843 -0.067541 -0.015544 0.18155 -0.057422 -0.246205 -0.145591 -0.086252 0.218553 0.440975 -0.167306 -0.351818 -0.235296 -0.448132 -0.109547 0.383979 0.051982 -0.112883 -0.212938 -0.219125 0.215952 -0.352485 -0.41912 -0.117166 0.016959 0.168745 -0.305528 0.444914 -0.648438 0.434316 -0.051233 0.1448 0.340957 0.498045 -0.198041 0.182277 0.076021 -0.672095 -0.075453 0.262077 0.056504 -0.32715 0.309493 0.238873 0.337607 -0.244021 0.239629 -0.051463 0.122376 0.061619 -0.157942 0.243507 0.19226 -0.099024 -0.397237 0.225069 0.213284 -0.429058 0.107859 -0.286879 0.098932 -0.306382 0.039502 0.182379 -0.150667 0.231252 -0.221045 0.41064 -0.006446 0.050143 -0.435193 -0.012008 0.294846 0.225145 0.220158 -0.0021 0.059347 -0.385862 0.180392 0.025202 -0.054765 0.171809 0.309622 0.575691 -0.127118 0.183588 0.105229 0.023075 0.371822 -0.165664 -0.354544 0.127346 -0.507402 -0.10887 -0.151036 -0.468067 -0.254112 0.129721 -0.143452
food -0.061323 -0.138223 0.07902 0.165168 -0.017271 0.112689 -0.111679 0.018781 0.056028 -0.370383 0.133323 -0.114607 0.180231 -0.144658 0.435123 -0.024288 -0.087109 0.247179 -0.05773 -0.215261 -0.190507 -0.252937 -0.34696 0.048034 -0.040765 0.152254 0.11428 0.00568 -0.361968 0.259648 -0.417854 -0.492814 -0.17851 0.29858 -0.14223 0.238406 -0.014509 -0.044565 0.025756 -0.188328 -0.534724 0.039624 -0.298767 -0.05367 0.513355 -0.216385 -0.561192 -0.221987 -0.225424 0.400315 0.164839 0.289284 -0.277865 0.49058 -0.081399 -0.017395 0.413313 -0.225849 -0.102203 -0.427256 -0.007866 -0.051425 -0.087326 -0.095333 -0.15984 -0.20677 -0.004493 0.280854 -0.274763 0.381226 -0.142996 -0.091736 0.478848 0.145156 -0.024919 0.288418 0.407135 -0.871645 0.259711 0.25016 0.409811 0.134879 -0.492833 0.552604 0.090542 0.194347 -0.453855 -0.41517 0.045208 -0.130685 0.083845 0.168626 0.28138 -0.033197 0.137498 0.001456 -0.130318 -0.116018 0.173155 0.077905 0.246823 -0.238612 0.119574 0.084707 -0.051749 0.241016 0.048506 0.069809 -0.022896 0.026929 0.655862 0.085491 -0.100463 0.238522 0.116764 -0.24071 -0.054848 -0.219253 -0.05287 0.25513 0.052864 -0.05911 0.515838 0.006996 0.013948 -0.003198 0.330208 -0.405626 0.349537 -0.147487 -0.260272 -0.212563 0.019561 0.168761 0.2545 -0.183768 0.157151 -0.244074 0.118964 0.091661 0.126882 0.22448 0.165914 -0.035734 0.159903 0.366718 0.052489 0.212633 -0.036373 0.435618 -0.315707 -0.378775 -0.185136 0.299502 -0.315888 0.260539 0.090945 -0.151652 0.04846 -0.082263 -0.16741 0.038384 0.13793 0.120463 -0.208518 0.063172 -0.088536 -0.150854 0.186997 0.041534 0.122283 -0.05287 -0.043196 0.382832 0.279963 0.065206 -0.494852 0.105185 0.106951 -0.195588 0.841048 0.047208 0.173427 0.182335 0.233078 0.104395 0.38103 0.487388 -0.240028 -0.040164 -0.141263 0.168935 0.367691 -0.421496 -0.368997 0.460141 -0.087794 0.171788 -0.50639 -0.04347
precedent -0.221317 -0.369286 0.054744 0.235234 -0.064331 -0.486048 -0.572245 0.266711 0.086984 0.134047 -0.003604 0.075183 0.542535 -0.017385 -0.279482 0.409281 0.148682 0.335943 -0.041652 -0.387369 -0.079653 0.018225 0.37477 0.164818 -0.163663 0.546921 -0.279653 -0.266614 -0.15534 -0.340413 -0.044683 0.050534 0.444272 -0.398542 0.148995 7.12E-4 -0.510296 -0.382325 0.013921 -0.098102 0.321446 0.38543 -0.020163 -0.442482 0.119487 0.396597 -0.352882 -0.247411 0.158246 0.601386 0.140044 0.612126 -0.056674 0.361201 0.076734 0.198867 0.353613 0.150979 0.085851 -0.204872 0.159348 0.02966 0.555065 0.165532 0.133675 -0.114649 0.101166 -0.15192 -0.482202 -0.113695 0.048777 -0.329044 0.088486 -0.135372 0.165468 -0.157902 -0.355595 -0.478203 -0.1491 -0.237671 -0.136135 -0.160891 0.179469 0.299475 0.60348 -0.058178 0.071353 -0.021859 0.630053 0.086441 -0.133791 0.057414 0.657106 -0.019236 0.207143 0.041777 0.203715 0.229458 -0.059885 0.008666 -0.224346 -0.018182 -0.303845 -0.025497 0.063199 0.10262 0.205314 0.189324 -0.179415 -0.40327 -0.157845 0.04306 -0.218884 -0.509778 -0.887605 -0.049106 -0.114231 0.348066 -0.327178 0.174579 0.279563 -0.106523 -0.057018 -0.266881 0.302457 0.168542 0.267425 -0.080935 0.504745 -0.089483 -0.191937 0.094554 -0.113246 -0.462867 -0.010543 -0.412433 -0.355673 0.356592 -0.280878 -0.131167 0.173249 -0.069805 -0.627131 -0.040791 0.402232 -0.592973 -0.178122 0.229231 0.009492 -0.04769 0.24671 0.257003 -0.342717 0.160213 0.171596 -0.103232 -0.080057 0.301844 -0.064194 -0.14414 0.01927 -0.112803 0.211057 0.012407 0.308614 -0.266501 0.526325 -0.007016 0.132798 -0.360115 -0.01103 0.210407 0.207924 -0.041641 0.216886 -0.489557 0.061723 -0.123044 -0.359854 -0.298352 0.686788 0.26643 0.370593 0.236142 0.070072 -0.12574 0.053222 0.174286 0.20861 0.205222 -0.034054 -0.205497 0.571288 0.215378 -0.242678 0.086243 -0.040204 0.010406 0.208064 -0.349338
series 0.045926 -0.26179 -0.182748 0.134562 0.043081 -0.478684 0.102713 0.001084 -0.103825 -0.227166 -4.63E-4 0.227917 -0.102406 -0.156222 -0.010337 0.134836 0.336999 0.004905 -0.086067 0.129785 -0.37595 -0.108008 0.010702 0.189993 -0.66812 0.140521 0.437415 0.095522 -0.247483 0.161927 0.027877 -0.028509 -0.002013 0.023927 0.322326 0.020072 0.249858 0.148142 0.227237 0.162485 0.195986 0.186691 -0.050795 0.338387 -0.169994 0.05795 -0.251035 0.011136 0.289633 0.108932 -0.199632 0.254575 0.016875 0.235465 0.074041 -0.251324 0.274163 0.086307 0.013025 -0.306735 0.024846 0.294243 -0.174849 0.248793 0.442461 -0.155301 -0.195581 0.003182 -0.314934 0.09034 -0.186576 0.42387 0.251772 -0.00165 0.134415 0.296431 0.065096 -0.332383 0.341676 0.292058 -0.395173 0.476298 0.043563 0.121365 0.362333 0.119722 0.082014 -0.04365 0.277631 -0.120198 -0.102934 -0.09963 -0.040353 -0.334619 0.248971 0.392976 0.456849 0.762597 0.104875 -0.068086 -0.458401 0.148377 -0.495124 0.08091 -0.076378 0.195684 0.442778 0.100356 0.186569 0.228133 -0.200409 -0.103543 0.098941 -0.270221 -0.114277 0.045724 -0.114221 -0.00794 0.029879 -0.113946 -0.196287 0.179518 -0.386831 -0.125781 0.271203 -0.361088 -0.101687 -0.395405 0.381352 -0.256114 0.004435 -0.255525 0.157011 -0.2608 -0.109647 0.161086 -0.211059 -0.46274 0.181869 0.032719 0.104022 0.280297 0.144406 0.087611 0.674084 0.106197 -0.019196 0.408093 0.080011 0.045457 0.278971 -0.057118 0.115371 -0.314994 -0.176026 -0.288416 -0.194794 -0.016476 -0.242279 0.057043 -0.16004 -0.077805 -0.173842 0.2901 0.281987 -0.574269 0.307816 0.139264 0.068014 -0.036399 0.142551 -0.037338 0.314459 0.172671 -0.053659 0.321113 -0.109628 -0.045213 0.230344 -0.198666 0.047217 0.362051 0.13537 -0.183988 0.125576 -0.159158 0.110591 0.481792 -0.12653 0.33615 -0.130143 -0.382688 -0.040645 0.584561 0.163261 -0.343931 -0.304228 -0.079519 0.073063 0.222765
kilometer -0.290438 -0.056023 0.473549 -0.507582 0.185182 -0.488232 -0.191921 -0.51016 -0.10152 -0.304919 -0.305621 -0.244627 -0.278138 0.044315 -0.174712 0.356028 0.064903 -0.410476 -0.360321 0.920434 0.173283 -0.267338 -0.098891 -0.09179 -0.019651 0.892195 -0.077509 -0.26718 -0.220252 -0.480026 -0.226144 0.453803 0.025471 0.378787 -0.500755 0.133531 0.037533 0.527047 0.57726 0.60772 -0.431736 -0.166513 0.060611 0.344761 -0.28532 0.053489 0.170977 -0.072762 0.010833 -0.14522 0.018692 0.080884 0.499334 0.551454 -0.315871 0.004339 0.383297 -0.119097 0.080034 -0.062715 -0.049718 0.380432 0.478225 -1.266752 -0.029893 -0.730335 0.132699 0.217362 0.19861 0.058046 0.076778 -0.181681 -0.290618 0.026638 -0.120712 -0.805637 0.11996 -0.111444 -0.270689 0.131388 -0.281908 -0.600987 -0.794987 0.128529 -0.242939 0.392831 -0.151516 0.065288 -0.488102 -0.115866 -0.263407 0.037361 -0.024443 -0.562988 0.44948 -0.651942 -0.167082 -0.164794 -0.109866 0.796942 -0.019091 -0.478533 -0.565818 -0.148326 0.211316 0.295357 -0.334139 -0.015692 0.435467 -0.197178 0.190983 0.190862 0.300131 0.045273 -0.838991 -0.097429 0.015828 0.305343 -0.230063 -0.46351 -0.408721 0.215788 0.367137 0.092886 0.191253 0.170568 0.610849 -0.072197 0.543764 -0.547759 0.54996 -0.059401 -0.62131 -0.304232 -0.003068 0.237911 -0.18851 -0.283188 0.411105 0.537814 0.244632 0.29999 -0.081584 0.621496 0.024534 0.186722 -0.357292 0.637823 -0.158172 0.052687 0.294959 -0.409002 0.013273 -0.555191 0.300246 -0.235726 -0.320106 -0.555568 0.079687 -0.043418 0.325227 0.650923 -0.141633 0.598783 -0.326231 -0.657666 0.095849 0.278702 0.556354 -0.327628 -0.160775 -0.060664 -0.169417 -0.502498 0.056032 -0.646639 -0.596296 -0.546064 -0.290702 0.010956 -0.05607 0.24791 -0.548906 -0.051181 0.011171 -0.199224 -0.02266 0.384062 -0.297156 -0.09949 -0.707921 -0.608621 -0.31015 -0.043842 -0.294687 0.457515 0.011271 -0.146108 -0.34794 0.105411
grocery 0.045602 0.141001 0.420328 0.090776 -0.176056 -0.085354 -0.21454 -0.224509 -0.308516 -0.220831 0.285142 0.338429 -0.018103 -0.12721 0.040698 -0.013323 -0.578979 0.149212 -0.01356 -0.33678 -0.28876 -0.502265 0.090229 0.126068 0.099073 -0.247635 -0.235367 0.084325 -0.363247 0.413052 -0.127514 -0.384884 0.270773 0.485304 -0.401393 0.620167 -0.550914 0.210648 -0.076502 -0.025198 -0.497581 -0.270806 -0.072456 0.004996 0.251481 0.172709 -0.599929 0.139811 -0.224066 0.183468 -0.331849 -0.192963 0.077951 0.492259 0.112819 0.546199 0.434964 -0.035512 0.008605 -0.076005 0.056894 -0.014626 0.093879 -0.134177 0.051081 0.084481 0.141082 0.061323 -0.464365 0.273484 -0.074507 0.049744 -0.112666 0.015191 -0.228849 -0.268221 0.338023 -0.029975 0.056243 0.230495 0.704915 0.176089 -0.36869 0.281455 0.355165 0.180203 -0.227939 0.005899 -0.035099 0.473558 0.004618 0.298675 0.170774 -0.080846 0.106487 -0.179865 -0.289946 -0.332074 0.606023 0.151747 -0.017807 0.136 -0.054902 -0.047675 0.03707 -0.070719 0.0427 -0.153514 0.060752 0.400524 0.946215 0.033996 0.063595 0.260198 0.116845 -0.308667 0.129515 -0.339721 -0.461879 -0.091204 -0.216345 0.048438 0.259388 0.104137 -0.095575 -0.075133 0.292258 -0.717191 0.256828 -0.022129 -0.034634 -0.299595 -0.152993 0.163215 -0.349257 -0.399677 -0.027289 -0.145411 0.048064 0.064334 0.147136 0.234539 0.104527 -0.103932 0.122392 0.235635 0.10018 0.0882 0.042918 0.426048 -0.187668 -0.484962 0.117949 -0.046338 -0.661049 -0.114157 0.083171 -0.505485 0.243647 0.07527 -0.515816 0.12386 -0.029678 -0.022922 -0.257128 -0.470158 -0.163733 -0.108685 0.178019 0.128185 0.183453 -0.220851 0.115857 0.078372 0.010549 0.334093 -0.850691 -0.107824 0.156032 -0.240742 0.657258 0.032927 0.134573 0.167523 0.122674 -0.183619 0.184274 0.296571 0.027531 -0.2776 0.178051 -0.435287 0.378187 -0.400963 -0.185105 0.19393 0.017911 0.476218 -0.784005 0.139327
wizard -0.453106 -0.439857 0.115194 0.238195 -0.266209 -0.044056 -0.300209 -0.193204 -0.337736 -0.201906 0.035677 0.600662 -0.479427 -0.063615 -0.176105 -0.096717 0.409568 -0.100244 -0.006849 0.030851 0.175236 0.019464 0.306906 -0.076383 -0.30796 0.108027 0.445477 -0.187365 -0.112504 0.125257 -0.112954 0.036276 0.366836 0.295543 0.150932 -0.07954 -0.038209 0.045564 0.138726 -0.098896 -0.033545 0.260426 -0.030417 -0.025332 0.44545 0.333532 -0.023083 0.054052 -0.187677 0.009187 -0.16739 -0.170485 -0.088486 0.488137 -0.425917 -0.308717 0.127221 0.091223 0.029497 -0.045349 0.173367 0.166725 -0.305623 -0.386695 -0.021869 0.557116 -0.150742 0.14701 -0.471054 -0.32243 -0.024626 0.443704 0.033662 0.303239 0.350604 0.538937 0.00496 0.223918 0.297381 -0.149492 0.223423 -0.122416 -0.584771 -0.451949 -0.227612 0.27611 -0.022323 -0.294022 0.026168 -0.02678 -0.250535 -0.138912 -0.452188 -0.043543 0.151082 0.034518 0.215157 0.410111 0.327951 -0.548212 -0.994712 -0.228518 -0.194963 -0.077587 -0.357322 -0.090883 -0.200002 0.316647 -0.656926 0.330598 -0.10878 0.135053 -0.256309 -0.689716 -0.37453 -0.035261 0.139584 0.344048 0.2362 0.381079 0.337224 -0.009221 0.033259 0.073403 -0.168776 0.183294 -0.258582 -0.30566 0.43851 -0.331993 -0.371335 0.210526 0.231801 -0.003209 0.08577 -0.436904 0.160588 0.250831 0.546689 0.016544 0.301238 -0.28635 -0.318131 -0.169992 0.087486 0.091189 -0.120029 0.506149 -0.065541 0.04232 -0.234498 -0.374808 -0.284482 -0.283714 -0.215873 -0.17756 -0.269566 0.381381 -0.812572 -0.291082 -0.307075 0.338511 -0.483977 -0.043432 -0.161626 -0.592718 0.623461 -0.053203 0.280684 -0.224908 -0.211931 -0.01637 0.255283 -0.301762 -0.036265 0.280505 -0.07658 -0.030253 -0.427782 -0.103205 0.068997 0.342414 0.229747 0.141617 0.176843 0.087722 0.181901 -0.274785 -0.02004 0.064207 -0.538122 -0.957928 -0.114203 0.056951 0.355554 -0.769519 -0.330392 0.334113 -0.315079 -0.027416
information -0.485656 0.078348 0.010491 0.276899 -0.18797 0.279553 -0.272375 0.071321 -0.262842 0.039083 0.028046 -0.181976 0.241803 0.059565 0.023431 -0.250362 0.043198 0.302936 -0.188109 -0.665945 -0.103477 0.012422 -0.083013 -0.095979 -0.471935 0.135403 0.069367 -0.592415 -0.084044 -0.067097 -0.105848 0.365755 -0.052741 -0.164447 -0.118437 0.172853 -0.367848 0.062179 -0.431644 0.454814 -0.038342 0.031588 -0.385063 -0.029213 0.510267 0.027695 -0.387197 -0.177653 -0.176824 -0.015131 0.038305 0.544756 -0.420023 1.00773 0.126013 -0.275463 0.322449 -0.292859 0.035086 -0.4033 0.81063 0.017865 0.224821 -0.042704 -0.12081 0.432191 -0.392192 0.121571 -0.253043 0.248148 0.435714 -0.288743 0.194079 -0.056707 0.001594 -0.510318 -0.620086 -0.128353 -0.130741 -0.291082 0.069114 -0.364352 -0.481396 0.024171 0.353698 0.034251 0.20733 -0.475348 0.129059 -0.087526 0.250547 0.156251 0.31635 -0.177265 0.028483 0.10184 0.208567 -0.272624 -0.081592 0.410893 0.041654 -0.227879 -0.239683 -0.007594 -0.111779 0.092681 0.075405 -0.279951 -0.153949 0.287013 0.004893 -0.107653 -0.722257 -0.283217 -0.432266 0.43345 0.056574 -0.297736 -0.440764 -0.345327 0.152177 0.334871 0.45288 0.376578 0.670668 -0.070912 0.222424 -0.045439 0.135368 -0.612565 -0.720037 -0.364066 0.072115 0.013252 0.091771 0.161745 0.163067 0.037596 0.472055 -0.233774 0.144939 -0.12194 0.203941 0.307055 0.052973 -0.075359 -0.187673 0.078073 8.83E-4 0.111392 -0.151755 -0.128397 -0.267241 0.004308 0.080663 -0.031403 0.171096 0.489571 -0.080049 0.106992 -0.208984 0.228694 -0.396091 -0.138522 -0.247397 0.018793 0.236594 0.057295 -0.106564 -0.173315 -0.326894 0.277395 0.402379 -0.136329 0.003973 0.110727 -0.492974 -0.286511 0.315008 -0.013593 -0.161324 -0.03088 -0.141544 -0.136271 0.115827 -0.274473 0.319954 -0.241051 -0.32747 0.03644 -0.152085 0.378119 0.042054 -0.463188 0.138438 -0.243012 -0.100975 -0.032437 0.043291 -0.109539
Israel 0.089399 0.068533 -0.410455 0.243177 0.062444 -0.323513 -0.007319 -0.234476 -0.196451 0.023632 0.516772 -0.104825 -0.209406 -0.570531 -0.364993 0.578177 0.277438 0.09649 -0.484377 0.373806 -0.156336 0.462414 -0.281327 0.073455 -0.223354 0.139338 -0.08845 0.240745 0.14069 -0.23868 -0.01091 0.074191 -0.219654 0.026282 -0.32104 -0.321081 0.014046 -0.136303 0.095576 0.050337 -0.575541 0.130475 -0.241917 -0.125078 -0.15274 0.377814 -0.146019 0.306623 -0.141165 0.588551 0.158963 0.08475 0.014507 0.247149 0.273025 0.699561 0.035799 0.066821 -0.221288 -0.253988 0.617749 -0.379027 0.38386 0.220503 0.1068 -0.069483 -0.146762 0.168821 -0.189815 0.631034 0.146394 0.360284 -0.14954 -0.768734 0.192396 -0.214743 -0.429063 -0.767518 0.120298 0.195078 0.194311 0.161991 0.028108 0.194153 0.385099 -0.25639 -0.058444 0.03325 0.513779 0.200075 0.227949 0.187839 -0.138361 -0.145886 0.072232 -0.181296 0.162156 -0.305152 -0.047218 0.626667 -0.218201 0.147449 0.111101 0.389035 0.026062 -0.54044 -0.59438 -0.542584 -0.126302 -0.283845 -0.375206 0.12468 0.404463 -0.017459 -0.301914 -0.131228 0.019744 0.057953 0.035967 5.6E-5 0.360017 -0.527717 -0.08251 0.324733 0.353609 0.108193 -0.042988 0.107204 0.278898 -0.435101 -0.024166 0.279105 0.439536 -0.00258 0.311164 0.060019 -0.360368 -0.682687 -0.317714 -0.370875 0.460914 -0.348441 0.235632 0.364949 0.24439 0.220143 -0.385969 0.083364 -0.401503 -0.181524 -0.240831 0.069132 0.10952 -0.06368 0.06645 -0.228015 -0.040235 -0.213834 -0.159441 0.327863 -0.077278 0.237066 -0.111661 0.504691 0.609677 -0.10662 0.04455 0.652013 0.203739 -0.132451 -0.484949 -0.103301 0.46775 0.237407 -0.429745 -0.183388 -0.050294 0.19337 0.408469 -0.175168 -0.139008 -0.238452 0.218213 -0.449157 0.152767 0.095908 0.144907 0.374737 0.05737 0.317352 -0.118902 -0.157861 0.688904 -0.237184 0.010907 -0.07139 -0.32022 0.215313 -0.174443 -0.200572
brandy -0.04009 -0.165006 0.06014 -0.068251 -0.098716 -0.357994 -0.045833 0.137237 -0.592767 -0.227953 0.194007 0.210247 0.054863 -0.185371 0.309879 -0.298746 -0.138606 0.032476 -0.148905 0.287568 0.270033 -0.272172 -0.198494 0.064595 0.223956 -0.107649 0.163849 -0.51588 -0.472441 0.246156 -0.159974 0.273723 0.242557 -0.111147 0.101047 0.145576 -0.323485 0.096297 -0.115129 -0.55962 -0.19619 0.015668 -0.458475 -0.222334 0.135795 -0.061672 0.295335 0.006473 0.233415 0.041455 5.33E-4 -0.333277 0.025977 0.498089 -0.363458 0.330676 0.27281 -0.206944 -0.177283 0.014113 -0.102996 -0.021532 -0.030879 -0.244155 -0.274515 -0.069714 -0.38362 0.100211 0.0075 -0.107063 -0.233426 0.08122 -0.152258 -0.016192 0.092156 0.054906 0.114791 -0.045175 0.214003 0.373208 0.210947 0.073501 -0.430168 0.031226 -0.045745 0.282971 -0.520418 -0.312969 0.339712 0.038641 -0.279572 0.515818 0.729562 -0.184333 0.066839 -0.181589 -0.005756 0.109347 0.118932 0.293 0.105541 -0.085153 0.51049 0.194271 -0.183946 -0.193069 0.111724 0.226138 -0.132464 0.007074 0.14178 -0.463079 -0.359448 0.117427 -0.147523 -0.316782 -0.332801 0.067867 -0.497202 0.15577 0.036575 -0.235967 -0.107224 -0.023242 -0.311373 0.032299 0.233159 0.237793 0.298271 -0.191039 -0.036044 -0.188299 -0.049083 0.06427 0.048982 -0.413563 -0.256075 0.011473 0.355669 -0.102259 0.022973 0.047378 0.013372 0.147411 -0.100983 0.74184 -0.114343 0.432904 0.176387 0.357587 -0.07065 -0.379073 -0.092587 0.330981 0.09502 -0.514018 -0.285841 -0.280138 -0.141115 0.043896 -0.523824 0.146175 0.106902 0.296659 -0.201634 -0.284354 -0.127584 0.158015 0.765295 -0.437981 -0.14611 -0.445887 -0.028069 0.437142 0.394305 0.04054 -0.092633 0.068293 0.083902 -0.033487 0.595361 0.281864 -0.329763 0.116192 0.094125 0.340967 0.201598 0.050313 0.396214 0.390709 -0.336046 -0.305841 0.570481 -0.332528 -0.267674 -0.227014 -0.0567 0.280718 -0.269237 -0.227653
interview -0.325162 0.067597 -0.110536 0.048677 -0.219201 0.230223 -0.070221 -0.078153 0.247682 0.394596 0.678479 0.612777 -0.167047 0.082788 0.054247 -0.40839 0.247824 0.231684 -0.053135 0.106606 0.064262 0.180337 -0.173056 0.377972 -0.539987 0.417656 -0.38505 0.055971 -0.056098 0.019208 0.131758 -0.035084 0.114557 -0.149678 -0.061991 -0.033574 -0.928031 0.426233 -0.229296 0.203965 0.378943 0.470892 -0.145663 -0.108518 0.38109 0.15327 -0.040813 -0.110142 0.28114 0.312607 -0.050781 0.05712 0.190756 0.660163 0.267742 -0.075788 0.310284 0.041396 0.382866 0.125562 0.614917 -0.099095 -0.245407 -0.063701 0.274388 -0.089968 -0.370375 0.370541 -0.380991 -0.296236 0.138907 0.394397 -0.401341 0.139609 -0.013555 -0.036772 0.035135 -0.245507 0.321263 0.228389 -0.438578 0.022793 -0.179487 0.145775 0.065405 -0.401692 -0.260339 0.250512 -0.462284 0.552527 0.225067 0.063285 0.242829 0.002868 0.002152 0.15484 -0.240872 0.291562 -0.589822 0.369056 -0.219591 0.565255 0.120009 0.171908 -0.319458 -0.391829 0.626742 -0.063574 0.267606 0.224193 0.134543 -0.796331 -0.140886 0.013314 -0.39514 0.376273 -0.072166 -0.084478 -0.173492 -0.255981 0.141575 0.032295 0.075721 -0.038091 0.293271 0.071585 0.300511 -0.510573 0.445225 -0.171099 -0.191029 0.408639 -0.052133 -0.036975 0.365998 0.009357 0.167493 -0.055364 0.190437 -0.053082 -0.047419 -0.054259 0.147631 0.143071 0.533946 0.261494 -0.041155 0.088867 0.10348 0.344004 0.048882 0.205309 -0.329277 -0.486274 -0.030734 -0.32801 -0.218882 -0.617214 0.114362 0.239058 0.284328 0.380988 -0.32633 0.053618 0.182635 -0.300085 0.038309 0.020934 0.54372 0.309629 -0.315026 0.118957 0.183319 0.050554 -0.059278 -0.312449 0.273659 0.26241 0.351436 -0.206046 0.162463 -0.299294 0.024334 -0.394328 0.368099 0.462041 0.069912 0.372805 -0.344783 0.435107 0.248809 -0.17733 -0.146047 -0.082737 -0.189275 0.536381 0.030838 -0.150943 -0.129646 0.279498
